{"learner":{"attributes":{"scikit_learn":"{\"_estimator_type\": \"regressor\"}"},"feature_names":["trip_duration_days","miles_traveled","total_receipts_amount"],"feature_types":["int","float","float"],"gradient_booster":{"model":{"gbtree_model_param":{"num_parallel_tree":"1","num_trees":"1500"},"iteration_indptr":[0,1,2,3,4,5,6,7,8,9,10,11,12,13,14,15,16,17,18,19,20,21,22,23,24,25,26,27,28,29,30,31,32,33,34,35,36,37,38,39,40,41,42,43,44,45,46,47,48,49,50,51,52,53,54,55,56,57,58,59,60,61,62,63,64,65,66,67,68,69,70,71,72,73,74,75,76,77,78,79,80,81,82,83,84,85,86,87,88,89,90,91,92,93,94,95,96,97,98,99,100,101,102,103,104,105,106,107,108,109,110,111,112,113,114,115,116,117,118,119,120,121,122,123,124,125,126,127,128,129,130,131,132,133,134,135,136,137,138,139,140,141,142,143,144,145,146,147,148,149,150,151,152,153,154,155,156,157,158,159,160,161,162,163,164,165,166,167,168,169,170,171,172,173,174,175,176,177,178,179,180,181,182,183,184,185,186,187,188,189,190,191,192,193,194,195,196,197,198,199,200,201,202,203,204,205,206,207,208,209,210,211,212,213,214,215,216,217,218,219,220,221,222,223,224,225,226,227,228,229,230,231,232,233,234,235,236,237,238,239,240,241,242,243,244,245,246,247,248,249,250,251,252,253,254,255,256,257,258,259,260,261,262,263,264,265,266,267,268,269,270,271,272,273,274,275,276,277,278,279,280,281,282,283,284,285,286,287,288,289,290,291,292,293,294,295,296,297,298,299,300,301,302,303,304,305,306,307,308,309,310,311,312,313,314,315,316,317,318,319,320,321,322,323,324,325,326,327,328,329,330,331,332,333,334,335,336,337,338,339,340,341,342,343,344,345,346,347,348,349,350,351,352,353,354,355,356,357,358,359,360,361,362,363,364,365,366,367,368,369,370,371,372,373,374,375,376,377,378,379,380,381,382,383,384,385,386,387,388,389,390,391,392,393,394,395,396,397,398,399,400,401,402,403,404,405,406,407,408,409,410,411,412,413,414,415,416,417,418,419,420,421,422,423,424,425,426,427,428,429,430,431,432,433,434,435,436,437,438,439,440,441,442,443,444,445,446,447,448,449,450,451,452,453,454,455,456,457,458,459,460,461,462,463,464,465,466,467,468,469,470,471,472,473,474,475,476,477,478,479,480,481,482,483,484,485,486,487,488,489,490,491,492,493,494,495,496,497,498,499,500,501,502,503,504,505,506,507,508,509,510,511,512,513,514,515,516,517,518,519,520,521,522,523,524,525,526,527,528,529,530,531,532,533,534,535,536,537,538,539,540,541,542,543,544,545,546,547,548,549,550,551,552,553,554,555,556,557,558,559,560,561,562,563,564,565,566,567,568,569,570,571,572,573,574,575,576,577,578,579,580,581,582,583,584,585,586,587,588,589,590,591,592,593,594,595,596,597,598,599,600,601,602,603,604,605,606,607,608,609,610,611,612,613,614,615,616,617,618,619,620,621,622,623,624,625,626,627,628,629,630,631,632,633,634,635,636,637,638,639,640,641,642,643,644,645,646,647,648,649,650,651,652,653,654,655,656,657,658,659,660,661,662,663,664,665,666,667,668,669,670,671,672,673,674,675,676,677,678,679,680,681,682,683,684,685,686,687,688,689,690,691,692,693,694,695,696,697,698,699,700,701,702,703,704,705,706,707,708,709,710,711,712,713,714,715,716,717,718,719,720,721,722,723,724,725,726,727,728,729,730,731,732,733,734,735,736,737,738,739,740,741,742,743,744,745,746,747,748,749,750,751,752,753,754,755,756,757,758,759,760,761,762,763,764,765,766,767,768,769,770,771,772,773,774,775,776,777,778,779,780,781,782,783,784,785,786,787,788,789,790,791,792,793,794,795,796,797,798,799,800,801,802,803,804,805,806,807,808,809,810,811,812,813,814,815,816,817,818,819,820,821,822,823,824,825,826,827,828,829,830,831,832,833,834,835,836,837,838,839,840,841,842,843,844,845,846,847,848,849,850,851,852,853,854,855,856,857,858,859,860,861,862,863,864,865,866,867,868,869,870,871,872,873,874,875,876,877,878,879,880,881,882,883,884,885,886,887,888,889,890,891,892,893,894,895,896,897,898,899,900,901,902,903,904,905,906,907,908,909,910,911,912,913,914,915,916,917,918,919,920,921,922,923,924,925,926,927,928,929,930,931,932,933,934,935,936,937,938,939,940,941,942,943,944,945,946,947,948,949,950,951,952,953,954,955,956,957,958,959,960,961,962,963,964,965,966,967,968,969,970,971,972,973,974,975,976,977,978,979,980,981,982,983,984,985,986,987,988,989,990,991,992,993,994,995,996,997,998,999,1000,1001,1002,1003,1004,1005,1006,1007,1008,1009,1010,1011,1012,1013,1014,1015,1016,1017,1018,1019,1020,1021,1022,1023,1024,1025,1026,1027,1028,1029,1030,1031,1032,1033,1034,1035,1036,1037,1038,1039,1040,1041,1042,1043,1044,1045,1046,1047,1048,1049,1050,1051,1052,1053,1054,1055,1056,1057,1058,1059,1060,1061,1062,1063,1064,1065,1066,1067,1068,1069,1070,1071,1072,1073,1074,1075,1076,1077,1078,1079,1080,1081,1082,1083,1084,1085,1086,1087,1088,1089,1090,1091,1092,1093,1094,1095,1096,1097,1098,1099,1100,1101,1102,1103,1104,1105,1106,1107,1108,1109,1110,1111,1112,1113,1114,1115,1116,1117,1118,1119,1120,1121,1122,1123,1124,1125,1126,1127,1128,1129,1130,1131,1132,1133,1134,1135,1136,1137,1138,1139,1140,1141,1142,1143,1144,1145,1146,1147,1148,1149,1150,1151,1152,1153,1154,1155,1156,1157,1158,1159,1160,1161,1162,1163,1164,1165,1166,1167,1168,1169,1170,1171,1172,1173,1174,1175,1176,1177,1178,1179,1180,1181,1182,1183,1184,1185,1186,1187,1188,1189,1190,1191,1192,1193,1194,1195,1196,1197,1198,1199,1200,1201,1202,1203,1204,1205,1206,1207,1208,1209,1210,1211,1212,1213,1214,1215,1216,1217,1218,1219,1220,1221,1222,1223,1224,1225,1226,1227,1228,1229,1230,1231,1232,1233,1234,1235,1236,1237,1238,1239,1240,1241,1242,1243,1244,1245,1246,1247,1248,1249,1250,1251,1252,1253,1254,1255,1256,1257,1258,1259,1260,1261,1262,1263,1264,1265,1266,1267,1268,1269,1270,1271,1272,1273,1274,1275,1276,1277,1278,1279,1280,1281,1282,1283,1284,1285,1286,1287,1288,1289,1290,1291,1292,1293,1294,1295,1296,1297,1298,1299,1300,1301,1302,1303,1304,1305,1306,1307,1308,1309,1310,1311,1312,1313,1314,1315,1316,1317,1318,1319,1320,1321,1322,1323,1324,1325,1326,1327,1328,1329,1330,1331,1332,1333,1334,1335,1336,1337,1338,1339,1340,1341,1342,1343,1344,1345,1346,1347,1348,1349,1350,1351,1352,1353,1354,1355,1356,1357,1358,1359,1360,1361,1362,1363,1364,1365,1366,1367,1368,1369,1370,1371,1372,1373,1374,1375,1376,1377,1378,1379,1380,1381,1382,1383,1384,1385,1386,1387,1388,1389,1390,1391,1392,1393,1394,1395,1396,1397,1398,1399,1400,1401,1402,1403,1404,1405,1406,1407,1408,1409,1410,1411,1412,1413,1414,1415,1416,1417,1418,1419,1420,1421,1422,1423,1424,1425,1426,1427,1428,1429,1430,1431,1432,1433,1434,1435,1436,1437,1438,1439,1440,1441,1442,1443,1444,1445,1446,1447,1448,1449,1450,1451,1452,1453,1454,1455,1456,1457,1458,1459,1460,1461,1462,1463,1464,1465,1466,1467,1468,1469,1470,1471,1472,1473,1474,1475,1476,1477,1478,1479,1480,1481,1482,1483,1484,1485,1486,1487,1488,1489,1490,1491,1492,1493,1494,1495,1496,1497,1498,1499,1500],"tree_info":[0,0,0,0,0,0,0,0,0,0,0,0,0,0,0,0,0,0,0,0,0,0,0,0,0,0,0,0,0,0,0,0,0,0,0,0,0,0,0,0,0,0,0,0,0,0,0,0,0,0,0,0,0,0,0,0,0,0,0,0,0,0,0,0,0,0,0,0,0,0,0,0,0,0,0,0,0,0,0,0,0,0,0,0,0,0,0,0,0,0,0,0,0,0,0,0,0,0,0,0,0,0,0,0,0,0,0,0,0,0,0,0,0,0,0,0,0,0,0,0,0,0,0,0,0,0,0,0,0,0,0,0,0,0,0,0,0,0,0,0,0,0,0,0,0,0,0,0,0,0,0,0,0,0,0,0,0,0,0,0,0,0,0,0,0,0,0,0,0,0,0,0,0,0,0,0,0,0,0,0,0,0,0,0,0,0,0,0,0,0,0,0,0,0,0,0,0,0,0,0,0,0,0,0,0,0,0,0,0,0,0,0,0,0,0,0,0,0,0,0,0,0,0,0,0,0,0,0,0,0,0,0,0,0,0,0,0,0,0,0,0,0,0,0,0,0,0,0,0,0,0,0,0,0,0,0,0,0,0,0,0,0,0,0,0,0,0,0,0,0,0,0,0,0,0,0,0,0,0,0,0,0,0,0,0,0,0,0,0,0,0,0,0,0,0,0,0,0,0,0,0,0,0,0,0,0,0,0,0,0,0,0,0,0,0,0,0,0,0,0,0,0,0,0,0,0,0,0,0,0,0,0,0,0,0,0,0,0,0,0,0,0,0,0,0,0,0,0,0,0,0,0,0,0,0,0,0,0,0,0,0,0,0,0,0,0,0,0,0,0,0,0,0,0,0,0,0,0,0,0,0,0,0,0,0,0,0,0,0,0,0,0,0,0,0,0,0,0,0,0,0,0,0,0,0,0,0,0,0,0,0,0,0,0,0,0,0,0,0,0,0,0,0,0,0,0,0,0,0,0,0,0,0,0,0,0,0,0,0,0,0,0,0,0,0,0,0,0,0,0,0,0,0,0,0,0,0,0,0,0,0,0,0,0,0,0,0,0,0,0,0,0,0,0,0,0,0,0,0,0,0,0,0,0,0,0,0,0,0,0,0,0,0,0,0,0,0,0,0,0,0,0,0,0,0,0,0,0,0,0,0,0,0,0,0,0,0,0,0,0,0,0,0,0,0,0,0,0,0,0,0,0,0,0,0,0,0,0,0,0,0,0,0,0,0,0,0,0,0,0,0,0,0,0,0,0,0,0,0,0,0,0,0,0,0,0,0,0,0,0,0,0,0,0,0,0,0,0,0,0,0,0,0,0,0,0,0,0,0,0,0,0,0,0,0,0,0,0,0,0,0,0,0,0,0,0,0,0,0,0,0,0,0,0,0,0,0,0,0,0,0,0,0,0,0,0,0,0,0,0,0,0,0,0,0,0,0,0,0,0,0,0,0,0,0,0,0,0,0,0,0,0,0,0,0,0,0,0,0,0,0,0,0,0,0,0,0,0,0,0,0,0,0,0,0,0,0,0,0,0,0,0,0,0,0,0,0,0,0,0,0,0,0,0,0,0,0,0,0,0,0,0,0,0,0,0,0,0,0,0,0,0,0,0,0,0,0,0,0,0,0,0,0,0,0,0,0,0,0,0,0,0,0,0,0,0,0,0,0,0,0,0,0,0,0,0,0,0,0,0,0,0,0,0,0,0,0,0,0,0,0,0,0,0,0,0,0,0,0,0,0,0,0,0,0,0,0,0,0,0,0,0,0,0,0,0,0,0,0,0,0,0,0,0,0,0,0,0,0,0,0,0,0,0,0,0,0,0,0,0,0,0,0,0,0,0,0,0,0,0,0,0,0,0,0,0,0,0,0,0,0,0,0,0,0,0,0,0,0,0,0,0,0,0,0,0,0,0,0,0,0,0,0,0,0,0,0,0,0,0,0,0,0,0,0,0,0,0,0,0,0,0,0,0,0,0,0,0,0,0,0,0,0,0,0,0,0,0,0,0,0,0,0,0,0,0,0,0,0,0,0,0,0,0,0,0,0,0,0,0,0,0,0,0,0,0,0,0,0,0,0,0,0,0,0,0,0,0,0,0,0,0,0,0,0,0,0,0,0,0,0,0,0,0,0,0,0,0,0,0,0,0,0,0,0,0,0,0,0,0,0,0,0,0,0,0,0,0,0,0,0,0,0,0,0,0,0,0,0,0,0,0,0,0,0,0,0,0,0,0,0,0,0,0,0,0,0,0,0,0,0,0,0,0,0,0,0,0,0,0,0,0,0,0,0,0,0,0,0,0,0,0,0,0,0,0,0,0,0,0,0,0,0,0,0,0,0,0,0,0,0,0,0,0,0,0,0,0,0,0,0,0,0,0,0,0,0,0,0,0,0,0,0,0,0,0,0,0,0,0,0,0,0,0,0,0,0,0,0,0,0,0,0,0,0,0,0,0,0,0,0,0,0,0,0,0,0,0,0,0,0,0,0,0,0,0,0,0,0,0,0,0,0,0,0,0,0,0,0,0,0,0,0,0,0,0,0,0,0,0,0,0,0,0,0,0,0,0,0,0,0,0,0,0,0,0,0,0,0,0,0,0,0,0,0,0,0,0,0,0,0,0,0,0,0,0,0,0,0,0,0,0,0,0,0,0,0,0,0,0,0,0,0,0,0,0,0,0,0,0,0,0,0,0,0,0,0,0,0,0,0,0,0,0,0,0,0,0,0,0,0,0,0,0,0,0,0,0,0,0,0,0,0,0,0,0,0,0,0,0,0,0,0,0,0,0,0,0,0,0,0,0,0,0,0,0,0,0,0,0,0,0,0,0,0,0,0,0,0,0,0,0,0,0,0,0,0,0,0,0,0,0,0,0,0,0,0,0,0,0,0,0,0,0,0,0,0,0,0,0,0,0,0,0,0,0,0,0,0,0,0,0,0,0,0,0,0,0,0,0,0,0,0,0,0,0,0,0,0,0,0,0,0,0,0,0,0,0,0,0,0,0,0,0,0,0,0,0,0,0,0,0,0,0,0,0,0,0,0,0,0,0,0,0,0,0,0,0,0,0,0,0,0,0,0,0,0,0,0,0,0,0,0,0,0,0,0,0,0,0,0,0,0,0,0,0,0,0,0,0,0,0,0,0,0,0,0,0,0,0,0,0,0,0,0,0,0,0,0,0,0,0,0,0,0,0,0,0,0,0,0,0,0,0,0,0,0,0,0,0,0,0,0,0,0,0,0,0,0,0,0,0,0,0,0,0,0,0,0,0,0,0,0,0,0,0,0,0,0,0,0,0,0,0,0,0,0,0,0,0,0,0,0,0,0,0,0,0,0,0,0,0,0,0,0,0,0,0,0,0,0,0,0,0,0,0,0,0,0,0],"trees":[{"base_weights":[-2.4154305E0,-4.7248285E2,2.4204916E2,-7.315803E2,-2.9811707E2,3.9315517E1,3.4881567E2,-2.3760141E1,-8.772756E0,-4.0021033E2,-1.1911489E0,-1.6686768E2,9.859593E1,1.7843144E2,4.4029672E2,-1.3711888E1,-5.2967668E0,-2.6280193E0,1.9146739E0,-6.2750835E0,-1.1311468E0,5.4886687E-1,5.405449E0,1.2564121E-1,6.416772E0,1.0010765E1,1.5291065E1],"categories":[],"categories_nodes":[],"categories_segments":[],"categories_sizes":[],"default_left":[0,0,0,0,0,0,0,0,0,0,0,0,0,0,0,0,0,0,0,0,0,0,0,0,0,0,0],"id":0,"left_children":[1,3,5,7,9,11,13,-1,-1,15,17,19,21,23,25,-1,-1,-1,-1,-1,-1,-1,-1,-1,-1,-1,-1],"loss_changes":[6.5498944E7,7.718144E6,8.04798E6,8.3108E5,3.786482E6,1.7322484E6,3.425362E6,0E0,0E0,7.78384E5,2.358366E5,1.3516162E5,6.90866E5,5.7611375E5,3.02972E5,0E0,0E0,0E0,0E0,0E0,0E0,0E0,0E0,0E0,0E0,0E0,0E0],"parents":[2147483647,0,0,1,1,2,2,3,3,4,4,5,5,6,6,9,9,10,10,11,11,12,12,13,13,14,14],"right_children":[2,4,6,8,10,12,14,-1,-1,16,18,20,22,24,26,-1,-1,-1,-1,-1,-1,-1,-1,-1,-1,-1,-1],"split_conditions":[8.2882E2,5E0,6E0,5.844E2,8.35E2,1.07487E3,4.87E2,-2.3760141E1,-8.772756E0,5.1994E2,4.7475E2,5E0,4E0,1.06349E3,8.15E2,-1.3711888E1,-5.2967668E0,-2.6280193E0,1.9146739E0,-6.2750835E0,-1.1311468E0,5.4886687E-1,5.405449E0,1.2564121E-1,6.416772E0,1.0010765E1,1.5291065E1],"split_indices":[2,0,0,2,1,2,1,0,0,2,2,0,0,2,1,0,0,0,0,0,0,0,0,0,0,0,0],"split_type":[0,0,0,0,0,0,0,0,0,0,0,0,0,0,0,0,0,0,0,0,0,0,0,0,0,0,0],"sum_hessian":[5.6E2,1.9E2,3.7E2,7E1,1.2E2,1.3E2,2.4E2,5.8E1,1.2E1,8.8E1,3.2E1,2.7E1,1.03E2,8.9E1,1.51E2,6.6E1,2.2E1,1.3E1,1.9E1,1.8E1,9E0,5.5E1,4.8E1,1.6E1,7.3E1,7.1E1,8E1],"tree_param":{"num_deleted":"0","num_feature":"3","num_nodes":"27","size_leaf_vector":"1"}},{"base_weights":[8.29553E0,-4.5241687E2,2.3174986E2,-2.1099117E1,-3.3816904E2,-1.8497225E1,3.1760223E2,-4.184208E2,-5.136811E1,-1.8884973E2,3.5881508E1,1.8371191E2,4.340702E2,-1.299996E1,-6.052177E-1,-4.0056524E0,6.143292E-1,-6.680701E0,-1.4584187E-1,-3.7434864E0,2.0328274E0,-1.2846744E0,6.786315E0,6.7738037E0,1.3864086E1],"categories":[],"categories_nodes":[],"categories_segments":[],"categories_sizes":[],"default_left":[0,0,0,0,0,0,0,0,0,0,0,0,0,0,0,0,0,0,0,0,0,0,0,0,0],"id":1,"left_children":[1,3,5,-1,7,9,11,13,15,17,19,21,23,-1,-1,-1,-1,-1,-1,-1,-1,-1,-1,-1,-1],"loss_changes":[5.704257E7,3.99784E6,8.043318E6,0E0,2.976245E6,9.603894E5,3.935776E6,5.73422E5,2.2036772E5,1.50015E5,4.519708E5,1.3771985E6,3.25172E5,0E0,0E0,0E0,0E0,0E0,0E0,0E0,0E0,0E0,0E0,0E0,0E0],"parents":[2147483647,0,0,1,1,2,2,4,4,5,5,6,6,7,7,8,8,9,9,10,10,11,11,12,12],"right_children":[2,4,6,-1,8,10,12,14,16,18,20,22,24,-1,-1,-1,-1,-1,-1,-1,-1,-1,-1,-1,-1],"split_conditions":[8.153E2,4E0,5E0,-2.1099117E1,8.35E2,1.07487E3,6.44E2,1.4E1,4.7475E2,4E0,1.73E2,9.884E2,6E0,-1.299996E1,-6.052177E-1,-4.0056524E0,6.143292E-1,-6.680701E0,-1.4584187E-1,-3.7434864E0,2.0328274E0,-1.2846744E0,6.786315E0,6.7738037E0,1.3864086E1],"split_indices":[2,0,0,0,1,2,1,0,2,0,1,2,0,0,0,0,0,0,0,0,0,0,0,0,0],"split_type":[0,0,0,0,0,0,0,0,0,0,0,0,0,0,0,0,0,0,0,0,0,0,0,0,0],"sum_hessian":[5.44E2,1.76E2,3.68E2,4.7E1,1.29E2,9.5E1,2.73E2,9.9E1,3E1,2E1,7.5E1,1.33E2,1.4E2,9.5E1,4E0,1.2E1,1.8E1,1.6E1,4E0,1E1,6.5E1,2.1E1,1.12E2,2.2E1,1.18E2],"tree_param":{"num_deleted":"0","num_feature":"3","num_nodes":"25","size_leaf_vector":"1"}},{"base_weights":[-5.581579E0,-4.4490012E2,2.2958594E2,-6.364346E2,-2.5225705E2,2.5390867E1,3.4229935E2,-2.2930782E1,-4.065021E2,-3.490306E2,6.8200808E0,-7.6080864E1,1.2796244E2,1.9410857E2,4.5592435E2,-1.33006935E1,-2.7291594E0,-1.2282419E1,-4.4847584E0,-2.3548002E0,2.5863843E0,-6.847255E0,-3.662909E-1,9.094515E-1,7.1745214E0,-9.6165365E-1,6.922349E0,9.27368E0,1.4917639E1],"categories":[],"categories_nodes":[],"categories_segments":[],"categories_sizes":[],"default_left":[0,0,0,0,0,0,0,0,0,0,0,0,0,0,0,0,0,0,0,0,0,0,0,0,0,0,0,0,0],"id":2,"left_children":[1,3,5,7,9,11,13,-1,15,17,19,21,23,25,27,-1,-1,-1,-1,-1,-1,-1,-1,-1,-1,-1,-1,-1,-1],"loss_changes":[5.8676404E7,6.502148E6,8.47192E6,1.269012E6,2.6949285E6,1.474641E6,3.564342E6,0E0,3.2109E5,6.33229E5,2.6413438E5,6.855721E5,7.234885E5,9.651935E5,2.5454E4,0E0,0E0,0E0,0E0,0E0,0E0,0E0,0E0,0E0,0E0,0E0,0E0,0E0,0E0],"parents":[2147483647,0,0,1,1,2,2,3,3,4,4,5,5,6,6,8,8,9,9,10,10,11,11,12,12,13,13,14,14],"right_children":[2,4,6,8,10,12,14,-1,16,18,20,22,24,26,28,-1,-1,-1,-1,-1,-1,-1,-1,-1,-1,-1,-1,-1,-1],"split_conditions":[8.2882E2,6E0,6E0,6.21E2,8.17E2,6.21E2,6.44E2,-2.2930782E1,6.1942E2,5.1994E2,4.2607E2,1.07487E3,4E0,9.7473E2,8.15E2,-1.33006935E1,-2.7291594E0,-1.2282419E1,-4.4847584E0,-2.3548002E0,2.5863843E0,-6.847255E0,-3.662909E-1,9.094515E-1,7.1745214E0,-9.6165365E-1,6.922349E0,9.27368E0,1.4917639E1],"split_indices":[2,0,0,1,1,1,1,0,2,2,2,2,0,2,1,0,0,0,0,0,0,0,0,0,0,0,0,0,0],"split_type":[0,0,0,0,0,0,0,0,0,0,0,0,0,0,0,0,0,0,0,0,0,0,0,0,0,0,0,0,0],"sum_hessian":[5.58E2,1.93E2,3.65E2,9.1E1,1.02E2,1.32E2,2.33E2,5.1E1,4E1,7.3E1,2.9E1,6.7E1,6.5E1,1.07E2,1.26E2,3.4E1,6E0,5.2E1,2.1E1,1.4E1,1.5E1,1.6E1,5.1E1,3.8E1,2.7E1,1.5E1,9.2E1,3.7E1,8.9E1],"tree_param":{"num_deleted":"0","num_feature":"3","num_nodes":"29","size_leaf_vector":"1"}},{"base_weights":[-3.3691027E0,-4.503944E2,2.13896E2,-6.1057495E2,-2.071029E2,-1.936159E1,3.0099463E2,-2.1342031E1,-3.8856348E2,-2.92897E2,3.727207E1,-2.3218109E2,4.015814E1,1.699975E2,4.0237454E2,-1.3191005E1,-1.8115329E0,-1.0313238E1,-2.189432E0,-4.7278997E-2,3.3491502E0,-7.400538E0,5.74516E-1,-4.1690097E0,2.2852516E0,-1.9243577E0,6.143005E0,8.776159E0,1.3759487E1],"categories":[],"categories_nodes":[],"categories_segments":[],"categories_sizes":[],"default_left":[0,0,0,0,0,0,0,0,0,0,0,0,0,0,0,0,0,0,0,0,0,0,0,0,0,0,0,0,0],"id":3,"left_children":[1,3,5,7,9,11,13,-1,15,17,19,21,23,25,27,-1,-1,-1,-1,-1,-1,-1,-1,-1,-1,-1,-1,-1,-1],"loss_changes":[5.6424764E7,6.771332E6,7.97314E6,1.123848E6,1.7950128E6,1.4528442E6,3.44235E6,0E0,6.387165E5,5.67843E5,7.6103336E4,1.14978E5,6.39956E5,1.1485658E6,2.98806E5,0E0,0E0,0E0,0E0,0E0,0E0,0E0,0E0,0E0,0E0,0E0,0E0,0E0,0E0],"parents":[2147483647,0,0,1,1,2,2,3,3,4,4,5,5,6,6,8,8,9,9,10,10,11,11,12,12,13,13,14,14],"right_children":[2,4,6,8,10,12,14,-1,16,18,20,22,24,26,28,-1,-1,-1,-1,-1,-1,-1,-1,-1,-1,-1,-1,-1,-1],"split_conditions":[8.2882E2,7E0,5E0,6.25E2,8.89E2,1.07487E3,5.95E2,-2.1342031E1,6.0892E2,5.5498E2,5.885E2,1.126E3,1.73E2,9.884E2,8.15E2,-1.3191005E1,-1.8115329E0,-1.0313238E1,-2.189432E0,-4.7278997E-2,3.3491502E0,-7.400538E0,5.74516E-1,-4.1690097E0,2.2852516E0,-1.9243577E0,6.143005E0,8.776159E0,1.3759487E1],"split_indices":[2,0,0,1,1,2,1,0,2,2,2,1,1,2,1,0,0,0,0,0,0,0,0,0,0,0,0,0,0],"split_type":[0,0,0,0,0,0,0,0,0,0,0,0,0,0,0,0,0,0,0,0,0,0,0,0,0,0,0,0,0],"sum_hessian":[5.71E2,1.85E2,3.86E2,1.07E2,7.8E1,1.06E2,2.8E2,6.6E1,4.1E1,5.7E1,2.1E1,2E1,8.6E1,1.28E2,1.52E2,3.4E1,7E0,4.4E1,1.3E1,1.7E1,4E0,1.9E1,1E0,1.2E1,7.4E1,1.6E1,1.12E2,6.2E1,9E1],"tree_param":{"num_deleted":"0","num_feature":"3","num_nodes":"29","size_leaf_vector":"1"}},{"base_weights":[-6.3872275E0,-4.3978824E2,2.0760745E2,-5.835659E2,-2.4440877E2,-1.745388E1,2.8896964E2,-2.1465317E1,-3.9949927E2,-3.9114334E2,-9.95505E1,-1.8563559E2,2.8867807E1,1.6307118E2,3.8865195E2,-1.2379526E1,-3.7633196E-1,-1.2387163E1,-1.1322958E0,-5.4434495E0,2.9535955E-1,-5.96163E0,5.7164365E-1,-2.1757243E0,2.441081E0,2.0869803E-1,6.7158175E0,8.159029E0,1.3112533E1],"categories":[],"categories_nodes":[],"categories_segments":[],"categories_sizes":[],"default_left":[0,0,0,0,0,0,0,0,0,0,0,0,0,0,0,0,0,0,0,0,0,0,0,0,0,0,0,0,0],"id":4,"left_children":[1,3,5,7,9,11,13,-1,15,17,19,21,23,25,27,-1,-1,-1,-1,-1,-1,-1,-1,-1,-1,-1,-1,-1,-1],"loss_changes":[5.387816E7,4.679536E6,7.148655E6,1.168324E6,1.7178305E6,8.68321E5,3.271816E6,0E0,2.58682E5,2.52329E5,4.7498622E5,8.33955E4,5.0328306E5,1.2731475E6,2.86532E5,0E0,0E0,0E0,0E0,0E0,0E0,0E0,0E0,0E0,0E0,0E0,0E0,0E0,0E0],"parents":[2147483647,0,0,1,1,2,2,3,3,4,4,5,5,6,6,8,8,9,9,10,10,11,11,12,12,13,13,14,14],"right_children":[2,4,6,8,10,12,14,-1,16,18,20,22,24,26,28,-1,-1,-1,-1,-1,-1,-1,-1,-1,-1,-1,-1,-1,-1],"split_conditions":[8.2882E2,5.7E2,5E0,6E0,6E0,1.07487E3,6.01E2,-2.1465317E1,1.4E1,7.0975E2,9.05E2,1.126E3,2E0,1.15918E3,8.15E2,-1.2379526E1,-3.7633196E-1,-1.2387163E1,-1.1322958E0,-5.4434495E0,2.9535955E-1,-5.96163E0,5.7164365E-1,-2.1757243E0,2.441081E0,2.0869803E-1,6.7158175E0,8.159029E0,1.3112533E1],"split_indices":[2,1,0,0,0,2,1,0,0,2,1,1,0,2,1,0,0,0,0,0,0,0,0,0,0,0,0,0,0],"split_type":[0,0,0,0,0,0,0,0,0,0,0,0,0,0,0,0,0,0,0,0,0,0,0,0,0,0,0,0,0],"sum_hessian":[5.71E2,1.87E2,3.84E2,1.02E2,8.5E1,1.03E2,2.81E2,5.1E1,5.1E1,3.8E1,4.7E1,1.9E1,8.4E1,1.3E2,1.51E2,4.9E1,2E0,3.5E1,3E0,2.5E1,2.2E1,1.8E1,1E0,2.8E1,5.6E1,3.8E1,9.2E1,5.4E1,9.7E1],"tree_param":{"num_deleted":"0","num_feature":"3","num_nodes":"29","size_leaf_vector":"1"}},{"base_weights":[2.6669984E0,-4.390524E2,2.1556677E2,-6.591457E2,-2.9296313E2,2.5448742E1,3.123394E2,-2.1155733E1,-5.472249E0,-4.3752124E2,-1.2776039E2,-1.6277765E2,8.583827E1,1.3148572E2,1.2062539E1,-1.3413105E1,-2.7623556E0,-5.7251954E0,2.631457E-1,-6.3970804E0,-3.258885E-1,-7.8222014E-2,4.5829535E0,-2.5510728E0,5.257538E0],"categories":[],"categories_nodes":[],"categories_segments":[],"categories_sizes":[],"default_left":[0,0,0,0,0,0,0,0,0,0,0,0,0,0,0,0,0,0,0,0,0,0,0,0,0],"id":5,"left_children":[1,3,5,7,9,11,13,-1,-1,15,17,19,21,23,-1,-1,-1,-1,-1,-1,-1,-1,-1,-1,-1],"loss_changes":[5.4359044E7,5.078336E6,7.135224E6,9.14508E5,2.633477E6,1.6270516E6,3.92266E6,0E0,0E0,2.155E3,5.597428E5,2.5648181E5,6.3551656E5,9.558886E5,0E0,0E0,0E0,0E0,0E0,0E0,0E0,0E0,0E0,0E0,0E0],"parents":[2147483647,0,0,1,1,2,2,3,3,4,4,5,5,6,6,9,9,10,10,11,11,12,12,13,13],"right_children":[2,4,6,8,10,12,14,-1,-1,16,18,20,22,24,-1,-1,-1,-1,-1,-1,-1,-1,-1,-1,-1],"split_conditions":[7.4182E2,5E0,6E0,5.844E2,4.81E2,1.07244E3,4.87E2,-2.1155733E1,-5.472249E0,7.2067E2,4.8573E2,5E0,5.77E2,9.3746E2,1.2062539E1,-1.3413105E1,-2.7623556E0,-5.7251954E0,2.631457E-1,-6.3970804E0,-3.258885E-1,-7.8222014E-2,4.5829535E0,-2.5510728E0,5.257538E0],"split_indices":[2,0,0,2,1,2,1,0,0,2,2,0,1,2,0,0,0,0,0,0,0,0,0,0,0],"split_type":[0,0,0,0,0,0,0,0,0,0,0,0,0,0,0,0,0,0,0,0,0,0,0,0,0],"sum_hessian":[5.68E2,1.83E2,3.85E2,6.6E1,1.17E2,1.32E2,2.53E2,5.8E1,8E0,5.8E1,5.9E1,3E1,1.02E2,8.8E1,1.65E2,5.5E1,3E0,3.9E1,2E1,2.1E1,9E0,4.6E1,5.6E1,1.4E1,7.4E1],"tree_param":{"num_deleted":"0","num_feature":"3","num_nodes":"25","size_leaf_vector":"1"}},{"base_weights":[-1.3940295E1,-4.0900897E2,1.9477951E2,-2.0117897E1,-2.8311465E2,1.9274164E1,2.957099E2,-3.6982196E2,-2.2279158E1,-1.522387E2,6.959054E1,1.905087E2,1.3274494E1,-1.40946665E1,-7.344594E0,-3.8495178E0,1.4949272E0,-7.039097E0,-2.313742E-2,-1.189342E0,4.010128E0,1.0248861E0,7.4047103E0],"categories":[],"categories_nodes":[],"categories_segments":[],"categories_sizes":[],"default_left":[0,0,0,0,0,0,0,0,0,0,0,0,0,0,0,0,0,0,0,0,0,0,0],"id":6,"left_children":[1,3,5,-1,7,9,11,13,15,17,19,21,-1,-1,-1,-1,-1,-1,-1,-1,-1,-1,-1],"loss_changes":[4.7482436E7,5.603314E6,6.649302E6,0E0,3.192549E6,1.2869658E6,3.268216E6,7.61702E5,3.4555234E5,4.232E5,8.2457256E5,1.2606405E6,0E0,0E0,0E0,0E0,0E0,0E0,0E0,0E0,0E0,0E0,0E0],"parents":[2147483647,0,0,1,1,2,2,4,4,5,5,6,6,7,7,8,8,9,9,10,10,11,11],"right_children":[2,4,6,-1,8,10,12,14,16,18,20,22,-1,-1,-1,-1,-1,-1,-1,-1,-1,-1,-1],"split_conditions":[8.2882E2,4E0,6E0,-2.0117897E1,8.35E2,1.07487E3,8.1E2,3.83E2,4.2607E2,5E0,3E0,1.1914E3,1.3274494E1,-1.40946665E1,-7.344594E0,-3.8495178E0,1.4949272E0,-7.039097E0,-2.313742E-2,-1.189342E0,4.010128E0,1.0248861E0,7.4047103E0],"split_indices":[2,0,0,0,1,2,1,1,2,0,0,2,0,0,0,0,0,0,0,0,0,0,0],"split_type":[0,0,0,0,0,0,0,0,0,0,0,0,0,0,0,0,0,0,0,0,0,0,0],"sum_hessian":[5.66E2,1.94E2,3.72E2,5.6E1,1.38E2,1.38E2,2.34E2,1.02E2,3.6E1,2.9E1,1.09E2,1.43E2,9.1E1,4.9E1,5.3E1,1.3E1,2.3E1,1.7E1,1.2E1,4.1E1,6.8E1,4E1,1.03E2],"tree_param":{"num_deleted":"0","num_feature":"3","num_nodes":"23","size_leaf_vector":"1"}},{"base_weights":[-2.0721564E0,-3.9644296E2,1.9100821E2,-5.703968E2,-1.97951E2,1.0508273E1,2.872048E2,-2.0194014E1,-3.3128357E2,-3.602547E2,-5.8129707E1,-1.09566345E2,5.992998E1,1.7061075E2,1.177451E1,-1.089924E1,-2.536081E0,-1.1175959E1,-9.263248E-1,-3.3050609E0,1.9690384E0,-6.707768E0,-1.168971E0,-1.3267839E0,3.0876946E0,-1.3744514E0,5.919273E0],"categories":[],"categories_nodes":[],"categories_segments":[],"categories_sizes":[],"default_left":[0,0,0,0,0,0,0,0,0,0,0,0,0,0,0,0,0,0,0,0,0,0,0,0,0,0,0],"id":7,"left_children":[1,3,5,7,9,11,13,-1,15,17,19,21,23,25,-1,-1,-1,-1,-1,-1,-1,-1,-1,-1,-1,-1,-1],"loss_changes":[4.332475E7,5.891496E6,6.61746E6,1.266884E6,2.050758E6,8.5171425E5,2.721076E6,0E0,1.54165E5,1.159675E5,4.033115E5,2.942881E5,4.750964E5,7.79183E5,0E0,0E0,0E0,0E0,0E0,0E0,0E0,0E0,0E0,0E0,0E0,0E0,0E0],"parents":[2147483647,0,0,1,1,2,2,3,3,4,4,5,5,6,6,8,8,9,9,10,10,11,11,12,12,13,13],"right_children":[2,4,6,8,10,12,14,-1,16,18,20,22,24,26,-1,-1,-1,-1,-1,-1,-1,-1,-1,-1,-1,-1,-1],"split_conditions":[8.2882E2,6E0,6E0,6.25E2,4.75E2,2.93E2,6.44E2,-2.0194014E1,6.1942E2,1.4E1,5.5905E2,1.07244E3,2E0,9.7473E2,1.177451E1,-1.089924E1,-2.536081E0,-1.1175959E1,-9.263248E-1,-3.3050609E0,1.9690384E0,-6.707768E0,-1.168971E0,-1.3267839E0,3.0876946E0,-1.3744514E0,5.919273E0],"split_indices":[2,0,0,1,1,1,1,0,2,0,2,2,0,2,0,0,0,0,0,0,0,0,0,0,0,0,0],"split_type":[0,0,0,0,0,0,0,0,0,0,0,0,0,0,0,0,0,0,0,0,0,0,0,0,0,0,0],"sum_hessian":[5.59E2,1.82E2,3.77E2,9.2E1,9E1,1.33E2,2.44E2,5.8E1,3.4E1,3.8E1,5.2E1,3.7E1,9.6E1,1.22E2,1.22E2,2.8E1,6E0,3.6E1,2E0,3.7E1,1.5E1,1E1,2.7E1,2.8E1,6.8E1,1.3E1,1.09E2],"tree_param":{"num_deleted":"0","num_feature":"3","num_nodes":"27","size_leaf_vector":"1"}},{"base_weights":[-9.541969E0,-3.7120865E2,1.896498E2,-5.0164062E2,-1.539724E2,1.0857171E1,2.8866058E2,-1.8325478E1,-3.0349527E2,-2.3331538E2,5.3760353E1,-6.996541E1,9.6838974E1,1.3227377E2,3.6611197E2,-1.0286482E1,-2.0529072E0,-7.836786E0,-1.8174055E0,-8.409614E-1,3.3053122E0,-4.542106E0,-7.343888E-2,-9.853689E-1,4.514905E0,4.2909083E0,-3.9051442E0,8.029589E0,1.2775685E1],"categories":[],"categories_nodes":[],"categories_segments":[],"categories_sizes":[],"default_left":[0,0,0,0,0,0,0,0,0,0,0,0,0,0,0,0,0,0,0,0,0,0,0,0,0,0,0,0,0],"id":8,"left_children":[1,3,5,7,9,11,13,-1,15,17,19,21,23,25,27,-1,-1,-1,-1,-1,-1,-1,-1,-1,-1,-1,-1,-1,-1],"loss_changes":[4.0983316E7,5.33673E6,6.480813E6,1.755396E6,1.4309129E6,9.790046E5,2.615886E6,0E0,3.82236E5,2.146445E5,1.40115E5,3.9938306E5,4.9801812E5,3.3588262E5,3.41164E5,0E0,0E0,0E0,0E0,0E0,0E0,0E0,0E0,0E0,0E0,0E0,0E0,0E0,0E0],"parents":[2147483647,0,0,1,1,2,2,3,3,4,4,5,5,6,6,8,8,9,9,10,10,11,11,12,12,13,13,14,14],"right_children":[2,4,6,8,10,12,14,-1,16,18,20,22,24,26,28,-1,-1,-1,-1,-1,-1,-1,-1,-1,-1,-1,-1,-1,-1],"split_conditions":[8.6393E2,8E0,6E0,6.25E2,8.89E2,6.21E2,4.87E2,-1.8325478E1,6.1942E2,1.3E1,4.2607E2,1.40235E3,2E0,4.81E2,8.26E2,-1.0286482E1,-2.0529072E0,-7.836786E0,-1.8174055E0,-8.409614E-1,3.3053122E0,-4.542106E0,-7.343888E-2,-9.853689E-1,4.514905E0,4.2909083E0,-3.9051442E0,8.029589E0,1.2775685E1],"split_indices":[2,0,0,1,1,1,1,0,2,0,2,2,0,1,1,0,0,0,0,0,0,0,0,0,0,0,0,0,0],"split_type":[0,0,0,0,0,0,0,0,0,0,0,0,0,0,0,0,0,0,0,0,0,0,0,0,0,0,0,0,0],"sum_hessian":[5.59E2,1.97E2,3.62E2,1.19E2,7.8E1,1.31E2,2.31E2,7E1,4.9E1,5.6E1,2.2E1,6.8E1,6.3E1,8.1E1,1.5E2,4E1,9E0,4.6E1,1E1,1E1,1.2E1,2.8E1,4E1,1.9E1,4.4E1,8E1,1E0,6.7E1,8.3E1],"tree_param":{"num_deleted":"0","num_feature":"3","num_nodes":"29","size_leaf_vector":"1"}},{"base_weights":[2.9882476E0,-3.682807E2,1.8429199E2,-5.8610675E2,-2.371423E2,-3.304572E1,2.6418445E2,-1.8921642E1,-8.000922E0,-3.3145364E2,1.0782307E0,-5.4949913E0,1.0968272E1,1.14275E2,3.396858E2,-1.2780977E1,-6.5860653E0,-2.5447006E0,1.8409457E0,-5.0273395E0,9.474843E-1,-2.281256E0,4.531419E0,4.6443295E0,1.0826622E1],"categories":[],"categories_nodes":[],"categories_segments":[],"categories_sizes":[],"default_left":[0,0,0,0,0,0,0,0,0,0,0,0,0,0,0,0,0,0,0,0,0,0,0,0,0],"id":9,"left_children":[1,3,5,7,9,11,13,-1,-1,15,17,-1,19,21,23,-1,-1,-1,-1,-1,-1,-1,-1,-1,-1],"loss_changes":[3.897652E7,4.73164E6,6.79834E6,1.27066E5,2.8554135E6,7.30425E5,3.031192E6,0E0,0E0,4.94952E5,2.383298E5,0E0,3.5390466E5,7.783385E5,4.5311E5,0E0,0E0,0E0,0E0,0E0,0E0,0E0,0E0,0E0,0E0],"parents":[2147483647,0,0,1,1,2,2,3,3,4,4,5,5,6,6,9,9,10,10,12,12,13,13,14,14],"right_children":[2,4,6,8,10,12,14,-1,-1,16,18,-1,20,22,24,-1,-1,-1,-1,-1,-1,-1,-1,-1,-1],"split_conditions":[8.2882E2,5E0,5E0,5.844E2,8.35E2,1.09218E3,5.24E2,-1.8921642E1,-8.000922E0,3.4446E2,4.2607E2,-5.4949913E0,7E1,9.884E2,1.01303E3,-1.2780977E1,-6.5860653E0,-2.5447006E0,1.8409457E0,-5.0273395E0,9.474843E-1,-2.281256E0,4.531419E0,4.6443295E0,1.0826622E1],"split_indices":[2,0,0,2,1,2,1,0,0,1,2,0,1,2,2,0,0,0,0,0,0,0,0,0,0],"split_type":[0,0,0,0,0,0,0,0,0,0,0,0,0,0,0,0,0,0,0,0,0,0,0,0,0],"sum_hessian":[5.69E2,1.85E2,3.84E2,6.3E1,1.22E2,1.04E2,2.8E2,5.1E1,1.2E1,8.6E1,3.6E1,2E1,8.4E1,9.8E1,1.82E2,3.9E1,4.7E1,1.4E1,2.2E1,5E0,7.9E1,1.5E1,8.3E1,2.3E1,1.59E2],"tree_param":{"num_deleted":"0","num_feature":"3","num_nodes":"25","size_leaf_vector":"1"}},{"base_weights":[-4.1898727E0,-3.612119E2,1.835267E2,-1.8001205E1,-2.5363351E2,-1.8556135E1,2.592822E2,-3.652498E2,-9.2166115E1,-1.889631E2,2.9267544E1,1.7498012E2,3.8659384E2,-1.1714546E1,-3.9942625E-1,-4.8622427E0,3.5322154E-1,-6.062704E0,6.254285E-1,-2.490647E0,2.271032E0,2.7097569E0,8.470244E0,4.2484283E0,1.2046537E1],"categories":[],"categories_nodes":[],"categories_segments":[],"categories_sizes":[],"default_left":[0,0,0,0,0,0,0,0,0,0,0,0,0,0,0,0,0,0,0,0,0,0,0,0,0],"id":10,"left_children":[1,3,5,-1,7,9,11,13,15,17,19,21,23,-1,-1,-1,-1,-1,-1,-1,-1,-1,-1,-1,-1],"loss_changes":[3.9872824E7,4.505212E6,5.994763E6,0E0,2.534583E6,9.324053E5,2.709276E6,7.46259E5,5.0380125E5,9.01015E4,5.0588894E5,1.508074E6,1.14536E5,0E0,0E0,0E0,0E0,0E0,0E0,0E0,0E0,0E0,0E0,0E0,0E0],"parents":[2147483647,0,0,1,1,2,2,4,4,5,5,6,6,7,7,8,8,9,9,10,10,11,11,12,12],"right_children":[2,4,6,-1,8,10,12,14,16,18,20,22,24,-1,-1,-1,-1,-1,-1,-1,-1,-1,-1,-1,-1],"split_conditions":[8.2882E2,4E0,5E0,-1.8001205E1,6.25E2,1.09218E3,8.15E2,1.4E1,4.9045E2,1.126E3,2E0,1.1E1,6E0,-1.1714546E1,-3.9942625E-1,-4.8622427E0,3.5322154E-1,-6.062704E0,6.254285E-1,-2.490647E0,2.271032E0,2.7097569E0,8.470244E0,4.2484283E0,1.2046537E1],"split_indices":[2,0,0,0,1,2,1,0,2,1,0,0,0,0,0,0,0,0,0,0,0,0,0,0,0],"split_type":[0,0,0,0,0,0,0,0,0,0,0,0,0,0,0,0,0,0,0,0,0,0,0,0,0],"sum_hessian":[5.85E2,2E2,3.85E2,5.5E1,1.45E2,1.06E2,2.79E2,8.2E1,6.3E1,2E1,8.6E1,1.75E2,1.04E2,7.6E1,6E0,3.6E1,2.7E1,1.9E1,1E0,2.4E1,6.2E1,1.03E2,7.2E1,9E0,9.5E1],"tree_param":{"num_deleted":"0","num_feature":"3","num_nodes":"25","size_leaf_vector":"1"}},{"base_weights":[8.321661E0,-3.0661966E2,1.7326254E2,-4.3807294E2,-1.3746854E2,2.0636734E1,2.7053967E2,-5.259855E2,-1.9826976E2,-2.0569194E2,4.8523098E1,-9.598411E1,7.152207E1,1.19379074E2,1.0492948E1,-1.7987059E1,-9.932841E0,-7.8184E0,-2.8946104E0,-7.8196874E0,-2.1565552E0,-2.3722379E-1,3.955335E0,-4.536069E0,-1.341552E0,-1.1460266E0,3.3697548E0,-1.510086E0,4.2749248E0],"categories":[],"categories_nodes":[],"categories_segments":[],"categories_sizes":[],"default_left":[0,0,0,0,0,0,0,0,0,0,0,0,0,0,0,0,0,0,0,0,0,0,0,0,0,0,0,0,0],"id":11,"left_children":[1,3,5,7,9,11,13,15,17,19,21,23,25,27,-1,-1,-1,-1,-1,-1,-1,-1,-1,-1,-1,-1,-1,-1,-1],"loss_changes":[2.9615378E7,4.056472E6,5.524571E6,1.754664E6,1.2301364E6,9.303784E5,2.521227E6,9.6392E4,1.086975E5,4.1344825E5,1.4169102E5,1.0187478E5,5.050487E5,3.7338138E5,0E0,0E0,0E0,0E0,0E0,0E0,0E0,0E0,0E0,0E0,0E0,0E0,0E0,0E0,0E0],"parents":[2147483647,0,0,1,1,2,2,3,3,4,4,5,5,6,6,7,7,8,8,9,9,10,10,11,11,12,12,13,13],"right_children":[2,4,6,8,10,12,14,16,18,20,22,24,26,28,-1,-1,-1,-1,-1,-1,-1,-1,-1,-1,-1,-1,-1,-1,-1],"split_conditions":[8.6393E2,7E0,6E0,5.844E2,8.69E2,3.1069E2,4.87E2,5.67E2,7.28E2,4.9549E2,5.9165E2,1.25E2,2E0,1.02625E3,1.0492948E1,-1.7987059E1,-9.932841E0,-7.8184E0,-2.8946104E0,-7.8196874E0,-2.1565552E0,-2.3722379E-1,3.955335E0,-4.536069E0,-1.341552E0,-1.1460266E0,3.3697548E0,-1.510086E0,4.2749248E0],"split_indices":[2,0,0,2,1,1,1,1,1,2,2,1,0,2,0,0,0,0,0,0,0,0,0,0,0,0,0,0,0],"split_type":[0,0,0,0,0,0,0,0,0,0,0,0,0,0,0,0,0,0,0,0,0,0,0,0,0,0,0,0,0],"sum_hessian":[5.6E2,1.91E2,3.69E2,1.03E2,8.8E1,1.46E2,2.23E2,7.1E1,3.2E1,6.4E1,2.4E1,4.3E1,1.03E2,8.1E1,1.42E2,4.4E1,2.7E1,1.5E1,1.7E1,4.2E1,2.2E1,1.7E1,7E0,1.6E1,2.7E1,2.8E1,7.5E1,9E0,7.2E1],"tree_param":{"num_deleted":"0","num_feature":"3","num_nodes":"29","size_leaf_vector":"1"}},{"base_weights":[4.466536E-2,-3.451587E2,1.6999294E2,-1.6508617E1,-2.2109102E2,1.06474695E1,2.6304785E2,-2.9088727E2,-1.0093888E1,-7.996199E1,8.9569954E1,1.289116E2,3.214828E2,-1.0020324E1,-3.3154233E0,-1.6970042E0,1.3049937E0,-3.7888138E0,-9.542716E-1,-9.514448E-1,4.101018E0,2.838383E-1,4.837409E0,7.3551016E0,1.1307495E1],"categories":[],"categories_nodes":[],"categories_segments":[],"categories_sizes":[],"default_left":[0,0,0,0,0,0,0,0,0,0,0,0,0,0,0,0,0,0,0,0,0,0,0,0,0],"id":12,"left_children":[1,3,5,-1,7,9,11,13,15,17,19,21,23,-1,-1,-1,-1,-1,-1,-1,-1,-1,-1,-1,-1],"loss_changes":[3.4143892E7,4.277278E6,5.768595E6,0E0,1.8700495E6,1.101338E6,1.720542E6,5.617105E5,1.0447051E5,1.4038834E5,4.905132E5,3.127865E5,2.48024E5,0E0,0E0,0E0,0E0,0E0,0E0,0E0,0E0,0E0,0E0,0E0,0E0],"parents":[2147483647,0,0,1,1,2,2,4,4,5,5,6,6,7,7,8,8,9,9,10,10,11,11,12,12],"right_children":[2,4,6,-1,8,10,12,14,16,18,20,22,24,-1,-1,-1,-1,-1,-1,-1,-1,-1,-1,-1,-1],"split_conditions":[8.2882E2,5E0,6E0,-1.6508617E1,8.35E2,6.21E2,4.63E2,1.1E1,4.7475E2,1.64015E3,2E0,1.06349E3,8.26E2,-1.0020324E1,-3.3154233E0,-1.6970042E0,1.3049937E0,-3.7888138E0,-9.542716E-1,-9.514448E-1,4.101018E0,2.838383E-1,4.837409E0,7.3551016E0,1.1307495E1],"split_indices":[2,0,0,0,1,1,1,0,2,2,0,2,1,0,0,0,0,0,0,0,0,0,0,0,0],"split_type":[0,0,0,0,0,0,0,0,0,0,0,0,0,0,0,0,0,0,0,0,0,0,0,0,0],"sum_hessian":[5.72E2,1.87E2,3.85E2,6.4E1,1.23E2,1.44E2,2.41E2,9.1E1,3.2E1,6.7E1,7.7E1,7.8E1,1.63E2,7E1,2.1E1,1.7E1,1.5E1,3E1,3.7E1,2.2E1,5.5E1,1.8E1,6E1,8E1,8.3E1],"tree_param":{"num_deleted":"0","num_feature":"3","num_nodes":"25","size_leaf_vector":"1"}},{"base_weights":[4.8016024E0,-3.324721E2,1.7337727E2,-5.3054877E2,-2.1141153E2,-1.344382E1,2.3948045E2,-1.7324259E1,-6.595942E0,-3.4729346E2,-6.785007E1,-9.155094E1,4.339808E1,1.24833374E2,2.9939606E2,-1.11512165E1,-2.657209E0,-4.060846E0,8.132876E-1,-5.6939874E0,-1.4535767E0,-1.2227905E0,2.5318031E0,1.6226242E0,5.487789E0,7.404146E0,1.1562857E1],"categories":[],"categories_nodes":[],"categories_segments":[],"categories_sizes":[],"default_left":[0,0,0,0,0,0,0,0,0,0,0,0,0,0,0,0,0,0,0,0,0,0,0,0,0,0,0],"id":13,"left_children":[1,3,5,7,9,11,13,-1,-1,15,17,19,21,23,25,-1,-1,-1,-1,-1,-1,-1,-1,-1,-1,-1,-1],"loss_changes":[3.207064E7,3.94654E6,4.659724E6,3.55764E5,2.3201915E6,4.772088E5,1.722325E6,0E0,0E0,2.328515E5,4.479842E5,1.4432647E5,2.3459778E5,3.7771612E5,3.33634E5,0E0,0E0,0E0,0E0,0E0,0E0,0E0,0E0,0E0,0E0,0E0,0E0],"parents":[2147483647,0,0,1,1,2,2,3,3,4,4,5,5,6,6,9,9,10,10,11,11,12,12,13,13,14,14],"right_children":[2,4,6,8,10,12,14,-1,-1,16,18,20,22,24,26,-1,-1,-1,-1,-1,-1,-1,-1,-1,-1,-1,-1],"split_conditions":[8.4861E2,5E0,5E0,5.844E2,4.48E2,4.44E2,4.87E2,-1.7324259E1,-6.595942E0,7.2067E2,8.67E2,7E1,2E0,1E1,1.2E1,-1.11512165E1,-2.657209E0,-4.060846E0,8.132876E-1,-5.6939874E0,-1.4535767E0,-1.2227905E0,2.5318031E0,1.6226242E0,5.487789E0,7.404146E0,1.1562857E1],"split_indices":[2,0,0,2,1,1,1,0,0,2,1,1,0,0,0,0,0,0,0,0,0,0,0,0,0,0,0],"split_type":[0,0,0,0,0,0,0,0,0,0,0,0,0,0,0,0,0,0,0,0,0,0,0,0,0,0,0],"sum_hessian":[5.54E2,1.83E2,3.71E2,6.3E1,1.2E2,9.8E1,2.73E2,5.1E1,1.2E1,5.8E1,6.2E1,4E1,5.8E1,9.9E1,1.74E2,5.1E1,7E0,3.5E1,2.7E1,7E0,3.3E1,1.9E1,3.9E1,4.9E1,5E1,1.2E2,5.4E1],"tree_param":{"num_deleted":"0","num_feature":"3","num_nodes":"27","size_leaf_vector":"1"}},{"base_weights":[-3.949891E0,-3.3298312E2,1.7003157E2,-4.625628E2,-1.880401E2,1.7713346E1,2.4738916E2,-1.7630972E1,-3.0900836E2,-3.3118234E2,-1.0623677E2,-1.4308937E2,6.938585E1,1.5204152E2,1.04581585E1,-1.0477214E1,-3.0522714E0,-1.0207282E1,-1.5594909E-1,-5.2819333E0,7.5643265E-1,-5.592086E0,-5.298871E-1,-2.2501715E-1,3.551127E0,1.1360182E-1,5.8384695E0],"categories":[],"categories_nodes":[],"categories_segments":[],"categories_sizes":[],"default_left":[0,0,0,0,0,0,0,0,0,0,0,0,0,0,0,0,0,0,0,0,0,0,0,0,0,0,0],"id":14,"left_children":[1,3,5,7,9,11,13,-1,15,17,19,21,23,25,-1,-1,-1,-1,-1,-1,-1,-1,-1,-1,-1,-1,-1],"loss_changes":[3.2111852E7,3.208092E6,4.302175E6,9.93392E5,9.9459475E5,1.1214394E6,2.07961E6,0E0,2.80517E5,9.123175E4,6.7405175E5,1.626115E5,3.849449E5,8.4190075E5,0E0,0E0,0E0,0E0,0E0,0E0,0E0,0E0,0E0,0E0,0E0,0E0,0E0],"parents":[2147483647,0,0,1,1,2,2,3,3,4,4,5,5,6,6,8,8,9,9,10,10,11,11,12,12,13,13],"right_children":[2,4,6,8,10,12,14,-1,16,18,20,22,24,26,-1,-1,-1,-1,-1,-1,-1,-1,-1,-1,-1,-1,-1],"split_conditions":[8.2882E2,4.75E2,6E0,6E0,5E0,1.07487E3,6.94E2,-1.7630972E1,6.1942E2,7.4714E2,8.89E2,5E0,5.17E2,1.14693E3,1.04581585E1,-1.0477214E1,-3.0522714E0,-1.0207282E1,-1.5594909E-1,-5.2819333E0,7.5643265E-1,-5.592086E0,-5.298871E-1,-2.2501715E-1,3.551127E0,1.1360182E-1,5.8384695E0],"split_indices":[2,1,0,0,0,2,1,0,2,2,1,0,1,2,0,0,0,0,0,0,0,0,0,0,0,0,0],"split_type":[0,0,0,0,0,0,0,0,0,0,0,0,0,0,0,0,0,0,0,0,0,0,0,0,0,0,0],"sum_hessian":[5.51E2,1.89E2,3.62E2,9.4E1,9.5E1,1.24E2,2.38E2,4.4E1,5E1,2.9E1,6.6E1,2.8E1,9.6E1,1.29E2,1.09E2,3.9E1,1.1E1,2.8E1,1E0,4.2E1,2.4E1,1.9E1,9E0,3.9E1,5.7E1,3E1,9.9E1],"tree_param":{"num_deleted":"0","num_feature":"3","num_nodes":"27","size_leaf_vector":"1"}},{"base_weights":[-1.2606785E1,-3.3077405E2,1.5048163E2,-5.0476974E2,-2.1405406E2,8.789034E0,2.279027E2,-1.635568E1,-6.3364196E0,-2.8953717E2,-1.4329231E1,-7.8831276E1,1.0623049E2,1.3368951E2,3.1580463E2,-9.8514805E0,-3.4762766E0,-2.2624154E0,1.3354576E0,-5.685168E0,-9.011495E-1,1.1615635E0,5.219711E0,-5.673897E-1,5.2419677E0,7.226434E0,1.1156602E1],"categories":[],"categories_nodes":[],"categories_segments":[],"categories_sizes":[],"default_left":[0,0,0,0,0,0,0,0,0,0,0,0,0,0,0,0,0,0,0,0,0,0,0,0,0,0,0],"id":15,"left_children":[1,3,5,7,9,11,13,-1,-1,15,17,19,21,23,25,-1,-1,-1,-1,-1,-1,-1,-1,-1,-1,-1,-1],"loss_changes":[2.925523E7,3.338016E6,4.081556E6,2.8966E5,1.833282E6,1.2115844E6,1.784297E6,0E0,0E0,4.09688E5,1.5700145E5,3.763279E5,2.72601E5,7.9958225E5,5.9911E4,0E0,0E0,0E0,0E0,0E0,0E0,0E0,0E0,0E0,0E0,0E0,0E0],"parents":[2147483647,0,0,1,1,2,2,3,3,4,4,5,5,6,6,9,9,10,10,11,11,12,12,13,13,14,14],"right_children":[2,4,6,8,10,12,14,-1,-1,16,18,20,22,24,26,-1,-1,-1,-1,-1,-1,-1,-1,-1,-1,-1,-1],"split_conditions":[8.2882E2,5E0,6E0,5.844E2,8.35E2,6.21E2,6.44E2,-1.635568E1,-6.3364196E0,1.1E1,4.7475E2,1.07487E3,4E0,1.06349E3,9.34E2,-9.8514805E0,-3.4762766E0,-2.2624154E0,1.3354576E0,-5.685168E0,-9.011495E-1,1.1615635E0,5.219711E0,-5.673897E-1,5.2419677E0,7.226434E0,1.1156602E1],"split_indices":[2,0,0,2,1,1,1,0,0,0,2,2,0,2,1,0,0,0,0,0,0,0,0,0,0,0,0],"split_type":[0,0,0,0,0,0,0,0,0,0,0,0,0,0,0,0,0,0,0,0,0,0,0,0,0,0,0],"sum_hessian":[5.54E2,1.86E2,3.68E2,6.8E1,1.18E2,1.32E2,2.36E2,5.6E1,1.2E1,8.4E1,3.4E1,7E1,6.2E1,1.2E2,1.16E2,6.5E1,1.9E1,1.6E1,1.8E1,1.7E1,5.3E1,3.5E1,2.7E1,2.6E1,9.4E1,6.1E1,5.5E1],"tree_param":{"num_deleted":"0","num_feature":"3","num_nodes":"27","size_leaf_vector":"1"}},{"base_weights":[-6.8279133E0,-3.123901E2,1.481489E2,-4.365427E2,-1.6450148E2,5.3292797E1,2.616178E2,-1.6329483E1,-2.7540588E2,-2.9967776E2,-5.9408688E1,-5.1361313E1,1.1232993E2,1.4890222E2,9.487777E0,-9.18396E0,-9.005773E-1,-9.266211E0,-1.106171E0,-4.0065913E0,1.1318269E0,-5.1352077E0,-1.7664379E-1,1.58405E0,7.139701E0,-1.2273741E0,5.288994E0],"categories":[],"categories_nodes":[],"categories_segments":[],"categories_sizes":[],"default_left":[0,0,0,0,0,0,0,0,0,0,0,0,0,0,0,0,0,0,0,0,0,0,0,0,0,0,0],"id":16,"left_children":[1,3,5,7,9,11,13,-1,15,17,19,21,23,25,-1,-1,-1,-1,-1,-1,-1,-1,-1,-1,-1,-1,-1],"loss_changes":[2.5898004E7,3.018718E6,3.8370215E6,9.34168E5,1.2175808E6,1.2893179E6,7.74143E5,0E0,3.23164E5,3.696225E4,4.43011E5,4.1429844E5,9.2428075E5,3.6382912E5,0E0,0E0,0E0,0E0,0E0,0E0,0E0,0E0,0E0,0E0,0E0,0E0,0E0],"parents":[2147483647,0,0,1,1,2,2,3,3,4,4,5,5,6,6,8,8,9,9,10,10,11,11,12,12,13,13],"right_children":[2,4,6,8,10,12,14,-1,16,18,20,22,24,26,-1,-1,-1,-1,-1,-1,-1,-1,-1,-1,-1,-1,-1],"split_conditions":[8.2882E2,6E0,9E0,5.7E2,4.24E2,4E0,5.34E2,-1.6329483E1,6.1942E2,6.5524E2,4.6719E2,1.09218E3,8.26E2,9.6769E2,9.487777E0,-9.18396E0,-9.005773E-1,-9.266211E0,-1.106171E0,-4.0065913E0,1.1318269E0,-5.1352077E0,-1.7664379E-1,1.58405E0,7.139701E0,-1.2273741E0,5.288994E0],"split_indices":[2,0,0,1,1,0,1,0,2,2,2,2,1,2,0,0,0,0,0,0,0,0,0,0,0,0,0],"split_type":[0,0,0,0,0,0,0,0,0,0,0,0,0,0,0,0,0,0,0,0,0,0,0,0,0,0,0],"sum_hessian":[5.37E2,1.79E2,3.58E2,9.2E1,8.7E1,1.99E2,1.59E2,4.8E1,4.4E1,3.4E1,5.3E1,7.2E1,1.27E2,5.8E1,1.01E2,3.8E1,6E0,3.2E1,2E0,2.9E1,2.4E1,1.6E1,5.6E1,9.1E1,3.6E1,7E0,5.1E1],"tree_param":{"num_deleted":"0","num_feature":"3","num_nodes":"27","size_leaf_vector":"1"}},{"base_weights":[3.7227407E0,-3.009617E2,1.4953546E2,-4.2513858E2,-1.5614372E2,-3.326683E1,2.0934232E2,-1.4892818E1,-2.1811588E2,-2.2540208E2,-1.3101477E1,-1.9279205E2,2.3483032E1,1.0131976E2,2.852881E2,-7.727247E0,-1.2496897E0,-8.216522E0,-2.5715358E0,-2.5200782E0,2.0597417E0,-6.5663223E0,-6.543006E-1,-1.5945307E0,1.9194751E0,-1.9270077E0,4.135397E0,6.752891E0,1.0668545E1],"categories":[],"categories_nodes":[],"categories_segments":[],"categories_sizes":[],"default_left":[0,0,0,0,0,0,0,0,0,0,0,0,0,0,0,0,0,0,0,0,0,0,0,0,0,0,0,0,0],"id":17,"left_children":[1,3,5,7,9,11,13,-1,15,17,19,21,23,25,27,-1,-1,-1,-1,-1,-1,-1,-1,-1,-1,-1,-1,-1,-1],"loss_changes":[2.4704076E7,2.904452E6,4.145741E6,8.4518E5,8.865215E5,9.009503E5,2.184982E6,0E0,1.7582938E5,2.95359E5,2.3174217E5,9.185419E4,2.5289106E5,8.002375E5,2.93437E5,0E0,0E0,0E0,0E0,0E0,0E0,0E0,0E0,0E0,0E0,0E0,0E0,0E0,0E0],"parents":[2147483647,0,0,1,1,2,2,3,3,4,4,5,5,6,6,8,8,9,9,10,10,11,11,12,12,13,13,14,14],"right_children":[2,4,6,8,10,12,14,-1,16,18,20,22,24,26,28,-1,-1,-1,-1,-1,-1,-1,-1,-1,-1,-1,-1,-1,-1],"split_conditions":[7.5827E2,5.95E2,5E0,9E0,9E0,1.09218E3,6.01E2,-1.4892818E1,5.1994E2,5.4499E2,8.5912E2,8.26E2,2E0,1.02625E3,9.54E2,-7.727247E0,-1.2496897E0,-8.216522E0,-2.5715358E0,-2.5200782E0,2.0597417E0,-6.5663223E0,-6.543006E-1,-1.5945307E0,1.9194751E0,-1.9270077E0,4.135397E0,6.752891E0,1.0668545E1],"split_indices":[2,1,0,0,0,2,1,0,2,2,1,1,0,2,1,0,0,0,0,0,0,0,0,0,0,0,0,0,0],"split_type":[0,0,0,0,0,0,0,0,0,0,0,0,0,0,0,0,0,0,0,0,0,0,0,0,0,0,0,0,0],"sum_hessian":[5.46E2,1.75E2,3.71E2,8.9E1,8.6E1,9.2E1,2.79E2,6.1E1,2.8E1,5.6E1,3E1,2.1E1,7.1E1,1.2E2,1.59E2,2.1E1,7E0,3.8E1,1.8E1,1.6E1,1.4E1,1.7E1,4E0,2.4E1,4.7E1,2.1E1,9.9E1,9.7E1,6.2E1],"tree_param":{"num_deleted":"0","num_feature":"3","num_nodes":"29","size_leaf_vector":"1"}},{"base_weights":[-1.0528642E1,-3.0022293E2,1.4338855E2,-4.3423038E2,-1.4427454E2,-2.214045E1,1.9955853E2,-1.5114006E1,-2.168807E2,-2.5165903E2,-4.3056232E1,-1.665597E2,1.1432114E1,1.01361244E2,2.771079E2,-7.6712227E0,-1.1721078E0,-8.564622E0,-2.5278811E0,-2.9926357E0,1.0033377E0,-5.751149E0,-1.4392935E0,-4.9584703E0,8.396299E-1,-1.7961721E-1,4.1792245E0,2.4559162E0,8.636759E0],"categories":[],"categories_nodes":[],"categories_segments":[],"categories_sizes":[],"default_left":[0,0,0,0,0,0,0,0,0,0,0,0,0,0,0,0,0,0,0,0,0,0,0,0,0,0,0,0,0],"id":18,"left_children":[1,3,5,7,9,11,13,-1,15,17,19,21,23,25,27,-1,-1,-1,-1,-1,-1,-1,-1,-1,-1,-1,-1,-1,-1],"loss_changes":[2.5452734E7,3.824032E6,3.4903345E6,1.025538E6,1.0215861E6,4.896797E5,1.983805E6,0E0,1.8448162E5,1.4549975E5,2.6398306E5,1.04280625E4,2.7166847E5,5.379284E5,2.03935E5,0E0,0E0,0E0,0E0,0E0,0E0,0E0,0E0,0E0,0E0,0E0,0E0,0E0,0E0],"parents":[2147483647,0,0,1,1,2,2,3,3,4,4,5,5,6,6,8,8,9,9,10,10,11,11,12,12,13,13,14,14],"right_children":[2,4,6,8,10,12,14,-1,16,18,20,22,24,26,28,-1,-1,-1,-1,-1,-1,-1,-1,-1,-1,-1,-1,-1,-1],"split_conditions":[8.2882E2,5.7E2,5E0,8E0,6E0,9.7473E2,5.92E2,-1.5114006E1,1.2E1,5.9165E2,4.6719E2,8.26E2,7E1,1.11496E3,8.8884E2,-7.6712227E0,-1.1721078E0,-8.564622E0,-2.5278811E0,-2.9926357E0,1.0033377E0,-5.751149E0,-1.4392935E0,-4.9584703E0,8.396299E-1,-1.7961721E-1,4.1792245E0,2.4559162E0,8.636759E0],"split_indices":[2,1,0,0,0,2,1,0,0,2,2,1,1,2,2,0,0,0,0,0,0,0,0,0,0,0,0,0,0],"split_type":[0,0,0,0,0,0,0,0,0,0,0,0,0,0,0,0,0,0,0,0,0,0,0,0,0,0,0,0,0],"sum_hessian":[5.61E2,1.93E2,3.68E2,9.9E1,9.4E1,9.4E1,2.74E2,7E1,2.9E1,4.2E1,5.2E1,1.4E1,8E1,1.26E2,1.48E2,2.2E1,7E0,3.2E1,1E1,2.9E1,2.3E1,9E0,5E0,3E0,7.7E1,3.4E1,9.2E1,1E1,1.38E2],"tree_param":{"num_deleted":"0","num_feature":"3","num_nodes":"29","size_leaf_vector":"1"}},{"base_weights":[-8.18711E0,-2.9905148E2,1.4206973E2,-4.5670105E2,-1.9753647E2,-4.1493706E1,1.871202E2,-1.4741125E1,-5.517233E0,-2.8030557E2,-7.0507996E1,-1.0828422E2,2.3885328E1,1.0272187E2,2.6806476E2,-9.194153E0,-2.2548366E0,-3.2669241E0,9.856519E-1,-4.9829926E0,-1.4218714E0,1.3735834E0,-1.5505773E0,-1.0169193E0,4.330099E0,4.81674E0,8.856045E0],"categories":[],"categories_nodes":[],"categories_segments":[],"categories_sizes":[],"default_left":[0,0,0,0,0,0,0,0,0,0,0,0,0,0,0,0,0,0,0,0,0,0,0,0,0,0,0],"id":19,"left_children":[1,3,5,7,9,11,13,-1,-1,15,17,19,21,23,25,-1,-1,-1,-1,-1,-1,-1,-1,-1,-1,-1,-1],"loss_changes":[2.4512212E7,2.604996E6,3.098725E6,2.18986E5,1.215084E6,3.4925222E5,1.897761E6,0E0,0E0,2.81665E5,2.4017622E5,9.771619E4,8.299456E4,9.001214E5,1.9725E5,0E0,0E0,0E0,0E0,0E0,0E0,0E0,0E0,0E0,0E0,0E0,0E0],"parents":[2147483647,0,0,1,1,2,2,3,3,4,4,5,5,6,6,9,9,10,10,11,11,12,12,13,13,14,14],"right_children":[2,4,6,8,10,12,14,-1,-1,16,18,20,22,24,26,-1,-1,-1,-1,-1,-1,-1,-1,-1,-1,-1,-1],"split_conditions":[8.2882E2,5E0,4E0,5.844E2,6.25E2,6.21E2,6.44E2,-1.4741125E1,-5.517233E0,6.5524E2,5.5905E2,1.40235E3,1.06E3,1.12952E3,6E0,-9.194153E0,-2.2548366E0,-3.2669241E0,9.856519E-1,-4.9829926E0,-1.4218714E0,1.3735834E0,-1.5505773E0,-1.0169193E0,4.330099E0,4.81674E0,8.856045E0],"split_indices":[2,0,0,2,1,1,1,0,0,2,2,2,1,2,0,0,0,0,0,0,0,0,0,0,0,0,0],"split_type":[0,0,0,0,0,0,0,0,0,0,0,0,0,0,0,0,0,0,0,0,0,0,0,0,0,0,0],"sum_hessian":[5.51E2,1.86E2,3.65E2,6.6E1,1.2E2,7.2E1,2.93E2,5.5E1,1.1E1,6.9E1,5.1E1,3.4E1,3.8E1,1.49E2,1.44E2,5.9E1,1E1,3.7E1,1.4E1,1.3E1,2.1E1,3.1E1,7E0,3.5E1,1.14E2,3.6E1,1.08E2],"tree_param":{"num_deleted":"0","num_feature":"3","num_nodes":"27","size_leaf_vector":"1"}},{"base_weights":[-4.0706167E0,-2.6841406E2,1.3297026E2,-3.7148572E2,-1.2014091E2,-2.7201332E1,1.8683652E2,-4.208876E2,-9.644361E1,-2.634753E2,-4.355127E1,-1.1625081E2,3.1045362E1,9.01727E1,2.4940128E2,-1.3411143E1,-6.291183E0,-4.1199946E0,4.754242E-2,-8.166283E0,-4.5927126E-2,-3.0843363E0,1.0824627E0,-6.1306934E0,-1.9169539E0,-1.9294244E0,2.5166702E0,8.832815E-1,5.4790993E0,5.63645E0,8.999577E0],"categories":[],"categories_nodes":[],"categories_segments":[],"categories_sizes":[],"default_left":[0,0,0,0,0,0,0,0,0,0,0,0,0,0,0,0,0,0,0,0,0,0,0,0,0,0,0,0,0,0,0],"id":20,"left_children":[1,3,5,7,9,11,13,15,17,19,21,23,25,27,29,-1,-1,-1,-1,-1,-1,-1,-1,-1,-1,-1,-1,-1,-1,-1,-1],"loss_changes":[2.1117136E7,2.817624E6,3.3386625E6,1.359096E6,9.193554E5,5.42001E5,1.628966E6,6.077E4,9.7423984E4,6.6278375E4,3.206353E5,1.2355544E5,3.5454025E5,6.523567E5,2.52957E5,0E0,0E0,0E0,0E0,0E0,0E0,0E0,0E0,0E0,0E0,0E0,0E0,0E0,0E0,0E0,0E0],"parents":[2147483647,0,0,1,1,2,2,3,3,4,4,5,5,6,6,7,7,8,8,9,9,10,10,11,11,12,12,13,13,14,14],"right_children":[2,4,6,8,10,12,14,16,18,20,22,24,26,28,30,-1,-1,-1,-1,-1,-1,-1,-1,-1,-1,-1,-1,-1,-1,-1,-1],"split_conditions":[8.2882E2,6.25E2,5E0,1.2E1,5E0,3.1069E2,5.44E2,6.4643E2,5.1818E2,7.0975E2,4.8573E2,1.07487E3,2E0,1.1E1,1E1,-1.3411143E1,-6.291183E0,-4.1199946E0,4.754242E-2,-8.166283E0,-4.5927126E-2,-3.0843363E0,1.0824627E0,-6.1306934E0,-1.9169539E0,-1.9294244E0,2.5166702E0,8.832815E-1,5.4790993E0,5.63645E0,8.999577E0],"split_indices":[2,1,0,0,0,1,1,2,2,2,2,2,0,0,0,0,0,0,0,0,0,0,0,0,0,0,0,0,0,0,0],"split_type":[0,0,0,0,0,0,0,0,0,0,0,0,0,0,0,0,0,0,0,0,0,0,0,0,0,0,0,0,0,0,0],"sum_hessian":[5.73E2,1.94E2,3.79E2,1.1E2,8.4E1,9.6E1,2.83E2,9.1E1,1.9E1,2.5E1,5.9E1,3.6E1,6E1,1.16E2,1.67E2,7.6E1,1.5E1,1.2E1,7E0,2.4E1,1E0,3.3E1,2.6E1,8E0,2.8E1,2.1E1,3.9E1,7.4E1,4.2E1,8.6E1,8.1E1],"tree_param":{"num_deleted":"0","num_feature":"3","num_nodes":"31","size_leaf_vector":"1"}},{"base_weights":[-1.8039784E0,-2.682104E2,1.3959042E2,-4.3107193E2,-1.8239708E2,-1.6429867E1,1.9432825E2,-1.377828E1,-1.15055504E2,-9.298562E0,-1.09109314E2,-1.7842604E2,2.4070934E1,8.445083E1,2.5087442E2,-3.7658324E0,-0E0,-4.6935735E0,4.6081787E-1,-6.1306334E0,-1.4288272E0,-5.412444E0,1.2702719E0,-2.2393708E0,3.3568335E0,3.6654925E0,7.91822E0],"categories":[],"categories_nodes":[],"categories_segments":[],"categories_sizes":[],"default_left":[0,0,0,0,0,0,0,0,0,0,0,0,0,0,0,0,0,0,0,0,0,0,0,0,0,0,0],"id":21,"left_children":[1,3,5,7,9,11,13,-1,15,-1,17,19,21,23,25,-1,-1,-1,-1,-1,-1,-1,-1,-1,-1,-1,-1],"loss_changes":[2.1620632E7,2.387417E6,3.2187215E6,3.14556E5,1.1298905E6,6.908482E5,1.620987E6,0E0,1.4476141E4,0E0,5.7786575E5,2.2302812E4,3.593757E5,4.8715044E5,1.42722E5,0E0,0E0,0E0,0E0,0E0,0E0,0E0,0E0,0E0,0E0,0E0,0E0],"parents":[2147483647,0,0,1,1,2,2,3,3,4,4,5,5,6,6,8,8,10,10,11,11,12,12,13,13,14,14],"right_children":[2,4,6,8,10,12,14,-1,16,-1,18,20,22,24,26,-1,-1,-1,-1,-1,-1,-1,-1,-1,-1,-1,-1],"split_conditions":[8.2882E2,2.65E2,5E0,1.2E1,5E0,1.07487E3,4.87E2,-1.377828E1,4.9045E2,-9.298562E0,8.89E2,8.26E2,7E1,9.884E2,1.01303E3,-3.7658324E0,-0E0,-4.6935735E0,4.6081787E-1,-6.1306334E0,-1.4288272E0,-5.412444E0,1.2702719E0,-2.2393708E0,3.3568335E0,3.6654925E0,7.91822E0],"split_indices":[2,1,0,0,0,2,1,0,2,0,1,1,1,2,2,0,0,0,0,0,0,0,0,0,0,0,0],"split_type":[0,0,0,0,0,0,0,0,0,0,0,0,0,0,0,0,0,0,0,0,0,0,0,0,0,0,0],"sum_hessian":[5.64E2,1.94E2,3.7E2,6E1,1.34E2,9.7E1,2.73E2,5.3E1,7E0,4.3E1,9.1E1,1.6E1,8.1E1,9.7E1,1.76E2,6E0,1E0,6.5E1,2.6E1,1.1E1,5E0,3E0,7.8E1,1.3E1,8.4E1,2.1E1,1.55E2],"tree_param":{"num_deleted":"0","num_feature":"3","num_nodes":"27","size_leaf_vector":"1"}},{"base_weights":[-8.0020845E-1,-2.6777274E2,1.2459322E2,-3.441392E2,-1.1891972E2,-3.2385525E1,1.845522E2,-4.3277737E2,-2.080814E2,-1.8297974E2,-3.2351746E1,-1.753561E2,1.3834394E1,8.7695915E1,2.3999823E2,-1.3626689E1,-3.628295E0,-7.032182E0,-2.4070864E0,-1.9967285E-1,-5.7546997E0,-1.4638146E0,1.6053424E0,-6.122062E0,-7.323062E-1,-3.489623E0,1.3371755E0,-1.0414385E0,3.9196393E0,2.913634E0,7.606151E0],"categories":[],"categories_nodes":[],"categories_segments":[],"categories_sizes":[],"default_left":[0,0,0,0,0,0,0,0,0,0,0,0,0,0,0,0,0,0,0,0,0,0,0,0,0,0,0,0,0,0,0],"id":22,"left_children":[1,3,5,7,9,11,13,15,17,19,21,23,25,27,29,-1,-1,-1,-1,-1,-1,-1,-1,-1,-1,-1,-1,-1,-1,-1,-1],"loss_changes":[1.864604E7,1.818305E6,3.597292E6,9.35985E5,3.4728325E5,7.325729E5,1.37127E6,1.59434E5,9.07475E4,5.2672625E4,6.2462332E4,9.1884125E4,3.7391494E5,5.90703E5,2.09277E5,0E0,0E0,0E0,0E0,0E0,0E0,0E0,0E0,0E0,0E0,0E0,0E0,0E0,0E0,0E0,0E0],"parents":[2147483647,0,0,1,1,2,2,3,3,4,4,5,5,6,6,7,7,8,8,9,9,10,10,11,11,12,12,13,13,14,14],"right_children":[2,4,6,8,10,12,14,16,18,20,22,24,26,28,30,-1,-1,-1,-1,-1,-1,-1,-1,-1,-1,-1,-1,-1,-1,-1,-1],"split_conditions":[7.2567E2,8E0,5E0,5.7E2,6.18E2,1.07487E3,5.44E2,5.736E2,5.4499E2,1.2465E2,1.179E3,8.26E2,1.98E2,1.11496E3,9.1041E2,-1.3626689E1,-3.628295E0,-7.032182E0,-2.4070864E0,-1.9967285E-1,-5.7546997E0,-1.4638146E0,1.6053424E0,-6.122062E0,-7.323062E-1,-3.489623E0,1.3371755E0,-1.0414385E0,3.9196393E0,2.913634E0,7.606151E0],"split_indices":[2,0,0,1,1,2,1,2,2,2,1,1,1,2,2,0,0,0,0,0,0,0,0,0,0,0,0,0,0,0,0],"split_type":[0,0,0,0,0,0,0,0,0,0,0,0,0,0,0,0,0,0,0,0,0,0,0,0,0,0,0,0,0,0,0],"sum_hessian":[5.47E2,1.73E2,3.74E2,1.1E2,6.3E1,1.04E2,2.7E2,6E1,5E1,3.3E1,3E1,2.2E1,8.2E1,1.03E2,1.67E2,5.4E1,6E0,3.8E1,1.2E1,2E0,3.1E1,2.7E1,3E0,1.7E1,5E0,1.3E1,6.9E1,2.7E1,7.6E1,1.8E1,1.49E2],"tree_param":{"num_deleted":"0","num_feature":"3","num_nodes":"31","size_leaf_vector":"1"}},{"base_weights":[-2.1097689E0,-2.6363013E2,1.2568019E2,-4.2184747E2,-1.7000275E2,2.5853209E1,1.9367183E2,-1.57898855E1,-7.8946743E0,-2.8070428E2,-6.874455E1,-1.1011223E2,6.402306E1,9.293734E1,2.413596E2,-9.151432E0,-3.1777399E0,-3.596803E0,1.8825525E0,-5.5350323E0,-1.0346943E0,-3.185203E-1,3.3964622E0,-7.6185185E-1,3.7606773E0,5.7202353E0,9.290139E0],"categories":[],"categories_nodes":[],"categories_segments":[],"categories_sizes":[],"default_left":[0,0,0,0,0,0,0,0,0,0,0,0,0,0,0,0,0,0,0,0,0,0,0,0,0,0,0],"id":23,"left_children":[1,3,5,7,9,11,13,-1,-1,15,17,19,21,23,25,-1,-1,-1,-1,-1,-1,-1,-1,-1,-1,-1,-1],"loss_changes":[1.9549214E7,2.485019E6,2.642194E6,4.34146E5,1.3491835E6,8.915163E5,1.006794E6,0E0,0E0,9.33125E4,5.353905E5,1.8173169E5,4.9078212E5,3.3441906E5,2.40938E5,0E0,0E0,0E0,0E0,0E0,0E0,0E0,0E0,0E0,0E0,0E0,0E0],"parents":[2147483647,0,0,1,1,2,2,3,3,4,4,5,5,6,6,9,9,10,10,11,11,12,12,13,13,14,14],"right_children":[2,4,6,8,10,12,14,-1,-1,16,18,20,22,24,26,-1,-1,-1,-1,-1,-1,-1,-1,-1,-1,-1,-1],"split_conditions":[7.4714E2,5E0,7E0,5.53E2,4.75E2,1.07487E3,5E2,-1.57898855E1,-7.8946743E0,5.736E2,1.1E1,3.53E2,5.64E2,1.04984E3,9.48E2,-9.151432E0,-3.1777399E0,-3.596803E0,1.8825525E0,-5.5350323E0,-1.0346943E0,-3.185203E-1,3.3964622E0,-7.6185185E-1,3.7606773E0,5.7202353E0,9.290139E0],"split_indices":[2,0,0,1,1,2,1,0,0,2,0,1,1,2,1,0,0,0,0,0,0,0,0,0,0,0,0],"split_type":[0,0,0,0,0,0,0,0,0,0,0,0,0,0,0,0,0,0,0,0,0,0,0,0,0,0,0],"sum_hessian":[5.75E2,1.87E2,3.88E2,6.3E1,1.24E2,1.6E2,2.28E2,3.1E1,3.2E1,5.5E1,6.9E1,3.3E1,1.27E2,7.8E1,1.5E2,4.5E1,1E1,5E1,1.9E1,1.3E1,2E1,5.2E1,7.5E1,1.7E1,6.1E1,9.7E1,5.3E1],"tree_param":{"num_deleted":"0","num_feature":"3","num_nodes":"27","size_leaf_vector":"1"}},{"base_weights":[3.40337E0,-2.0072523E2,1.4725795E2,-2.9391736E2,-6.0667877E1,-2.1620293E1,1.8714558E2,-3.3920505E2,-6.986495E1,-1.8577048E2,-1.3865155E1,-7.505682E1,2.760357E1,1.3839206E2,2.6776532E2,-1.1825508E1,-6.8819113E0,-4.299709E0,4.4349098E-1,-6.8201003E0,-2.0663753E0,-2.3394678E0,2.045375E0,-3.005294E0,-6.5676916E-1,1.659857E0,-2.327721E0,2.4061706E0,6.6697936E0,9.717806E0,5.9849005E0],"categories":[],"categories_nodes":[],"categories_segments":[],"categories_sizes":[],"default_left":[0,0,0,0,0,0,0,0,0,0,0,0,0,0,0,0,0,0,0,0,0,0,0,0,0,0,0,0,0,0,0],"id":24,"left_children":[1,3,5,7,9,11,13,15,17,19,21,23,25,27,29,-1,-1,-1,-1,-1,-1,-1,-1,-1,-1,-1,-1,-1,-1,-1,-1],"loss_changes":[1.6122208E7,2.873348E6,2.189438E6,1.250917E6,5.5487044E5,1.8400989E5,8.40171E5,2.1737E5,1.9104811E5,4.7736875E4,4.263874E5,3.298311E4,1.3227006E5,7.5544225E5,3.29335E4,0E0,0E0,0E0,0E0,0E0,0E0,0E0,0E0,0E0,0E0,0E0,0E0,0E0,0E0,0E0,0E0],"parents":[2147483647,0,0,1,1,2,2,3,3,4,4,5,5,6,6,7,7,8,8,9,9,10,10,11,11,12,12,13,13,14,14],"right_children":[2,4,6,8,10,12,14,16,18,20,22,24,26,28,30,-1,-1,-1,-1,-1,-1,-1,-1,-1,-1,-1,-1,-1,-1,-1,-1],"split_conditions":[9.884E2,5.1994E2,4E0,1.1E1,5E0,5.04E2,8.26E2,5.7E2,4.48E2,8.8632E2,6.33E2,3E0,1.06E3,1.1E1,1.80138E3,-1.1825508E1,-6.8819113E0,-4.299709E0,4.4349098E-1,-6.8201003E0,-2.0663753E0,-2.3394678E0,2.045375E0,-3.005294E0,-6.5676916E-1,1.659857E0,-2.327721E0,2.4061706E0,6.6697936E0,9.717806E0,5.9849005E0],"split_indices":[2,2,0,0,0,1,1,1,1,2,1,0,1,0,2,0,0,0,0,0,0,0,0,0,0,0,0,0,0,0,0],"split_type":[0,0,0,0,0,0,0,0,0,0,0,0,0,0,0,0,0,0,0,0,0,0,0,0,0,0,0,0,0,0,0],"sum_hessian":[5.39E2,2.22E2,3.17E2,1.3E2,9.2E1,6.1E1,2.56E2,1.06E2,2.4E1,2.1E1,7.1E1,2.8E1,3.3E1,1.68E2,8.8E1,6.2E1,4.4E1,1.1E1,1.3E1,1.2E1,9E0,4E1,3.1E1,1.6E1,1.2E1,2.8E1,5E0,1.05E2,6.3E1,3.8E1,5E1],"tree_param":{"num_deleted":"0","num_feature":"3","num_nodes":"31","size_leaf_vector":"1"}},{"base_weights":[1.9174898E0,-2.2785773E2,1.19790146E2,-3.941175E2,-1.541279E2,-2.7114525E1,1.6686533E2,-1.3105905E1,-5.808263E0,-2.0195071E2,1.7361486E1,-1.7326239E2,1.7138304E1,1.12256065E2,2.6200513E2,-7.706553E0,-3.6194556E0,-1.97398E0,1.8611578E0,-5.9065175E0,-8.108008E-1,-5.177665E0,9.985902E-1,1.3022399E0,5.5182524E0,3.2282789E0,8.298055E0],"categories":[],"categories_nodes":[],"categories_segments":[],"categories_sizes":[],"default_left":[0,0,0,0,0,0,0,0,0,0,0,0,0,0,0,0,0,0,0,0,0,0,0,0,0,0,0],"id":25,"left_children":[1,3,5,7,9,11,13,-1,-1,15,17,19,21,23,25,-1,-1,-1,-1,-1,-1,-1,-1,-1,-1,-1,-1],"loss_changes":[1.5655622E7,2.098357E6,2.6645075E6,6.501E4,1.1986745E6,6.423465E5,1.3592665E6,0E0,0E0,3.493485E5,1.5416058E5,5.2619688E4,2.7061888E5,9.12386E5,8.0666E4,0E0,0E0,0E0,0E0,0E0,0E0,0E0,0E0,0E0,0E0,0E0,0E0],"parents":[2147483647,0,0,1,1,2,2,3,3,4,4,5,5,6,6,9,9,10,10,11,11,12,12,13,13,14,14],"right_children":[2,4,6,8,10,12,14,-1,-1,16,18,20,22,24,26,-1,-1,-1,-1,-1,-1,-1,-1,-1,-1,-1,-1],"split_conditions":[8.2882E2,4E0,5E0,8.55E2,8.89E2,1.07487E3,8.15E2,-1.3105905E1,-5.808263E0,4.14E2,8E0,8.26E2,7E1,1E1,7E0,-7.706553E0,-3.6194556E0,-1.97398E0,1.8611578E0,-5.9065175E0,-8.108008E-1,-5.177665E0,9.985902E-1,1.3022399E0,5.5182524E0,3.2282789E0,8.298055E0],"split_indices":[2,0,0,1,1,2,1,0,0,1,0,1,1,0,0,0,0,0,0,0,0,0,0,0,0,0,0],"split_type":[0,0,0,0,0,0,0,0,0,0,0,0,0,0,0,0,0,0,0,0,0,0,0,0,0,0,0],"sum_hessian":[5.68E2,1.91E2,3.77E2,5.2E1,1.39E2,9.2E1,2.85E2,3.8E1,1.4E1,1.08E2,3.1E1,1.8E1,7.4E1,1.88E2,9.7E1,5.8E1,5E1,1E1,2.1E1,1.4E1,4E0,2E0,7.2E1,1E2,8.8E1,1.2E1,8.5E1],"tree_param":{"num_deleted":"0","num_feature":"3","num_nodes":"27","size_leaf_vector":"1"}},{"base_weights":[-7.778416E0,-2.393133E2,1.1242388E2,-1.3806392E1,-1.7074756E2,1.45116825E1,1.8528554E2,-3.0137778E2,-1.0058692E2,-1.1244124E2,5.6932293E1,1.5079071E2,2.9485458E2,-9.918128E0,-3.1171265E0,-4.0158944E0,1.1386137E0,-5.1332893E0,-1.3785231E0,-4.7543252E-1,3.4639916E0,2.9802928E0,6.799712E0,6.415326E-1,8.956003E0],"categories":[],"categories_nodes":[],"categories_segments":[],"categories_sizes":[],"default_left":[0,0,0,0,0,0,0,0,0,0,0,0,0,0,0,0,0,0,0,0,0,0,0,0,0],"id":26,"left_children":[1,3,5,-1,7,9,11,13,15,17,19,21,23,-1,-1,-1,-1,-1,-1,-1,-1,-1,-1,-1,-1],"loss_changes":[1.5803516E7,2.544822E6,2.6544885E6,0E0,1.27778E6,9.2054656E5,5.860745E5,1.279255E5,5.28001E5,1.2820806E5,5.5028356E5,5.62334E5,1.403875E4,0E0,0E0,0E0,0E0,0E0,0E0,0E0,0E0,0E0,0E0,0E0,0E0],"parents":[2147483647,0,0,1,1,2,2,4,4,5,5,6,6,7,7,8,8,9,9,10,10,11,11,12,12],"right_children":[2,4,6,-1,8,10,12,14,16,18,20,22,24,-1,-1,-1,-1,-1,-1,-1,-1,-1,-1,-1,-1],"split_conditions":[8.2882E2,3E0,7E0,-1.3806392E1,3.4446E2,1.11496E3,1.3E1,1.1E1,1.1E1,3.1069E2,5.58E2,8.05E2,8.5379E2,-9.918128E0,-3.1171265E0,-4.0158944E0,1.1386137E0,-5.1332893E0,-1.3785231E0,-4.7543252E-1,3.4639916E0,2.9802928E0,6.799712E0,6.415326E-1,8.956003E0],"split_indices":[2,0,0,0,1,2,0,0,0,1,1,1,2,0,0,0,0,0,0,0,0,0,0,0,0],"split_type":[0,0,0,0,0,0,0,0,0,0,0,0,0,0,0,0,0,0,0,0,0,0,0,0,0],"sum_hessian":[5.58E2,1.89E2,3.69E2,3.8E1,1.51E2,1.6E2,2.09E2,4.7E1,1.04E2,3.8E1,1.22E2,1.68E2,4.1E1,3.8E1,9E0,8.4E1,2E1,1.6E1,2.2E1,5.6E1,6.6E1,1.07E2,6.1E1,1E0,4E1],"tree_param":{"num_deleted":"0","num_feature":"3","num_nodes":"25","size_leaf_vector":"1"}},{"base_weights":[-1.3298621E0,-2.858702E2,9.053226E1,-4.2777408E2,-2.0118698E2,3.2938602E1,1.997037E2,-1.3657108E1,-9.295025E1,-2.3599323E2,-5.0921825E1,-8.974703E1,7.660899E1,1.0664721E2,2.3037769E2,-1.9810181E-2,-3.0818014E0,-9.139448E0,-4.9706535E0,-1.9146065E0,7.076294E-3,-4.6551895E0,-3.1388268E-2,8.588331E-1,4.550496E0,9.3874896E-1,6.01513E0,6.183414E-1,6.9989624E0],"categories":[],"categories_nodes":[],"categories_segments":[],"categories_sizes":[],"default_left":[0,0,0,0,0,0,0,0,0,0,0,0,0,0,0,0,0,0,0,0,0,0,0,0,0,0,0,0,0],"id":27,"left_children":[1,3,5,7,9,11,13,-1,15,17,19,21,23,25,27,-1,-1,-1,-1,-1,-1,-1,-1,-1,-1,-1,-1,-1,-1],"loss_changes":[1.5316054E7,1.287472E6,2.7522762E6,2.38446E5,4.5741375E5,1.6202522E6,3.106885E5,0E0,8.580141E3,1.284615E5,1.6635156E4,4.6329862E5,7.741835E5,3.0081256E5,4.31045E4,0E0,0E0,0E0,0E0,0E0,0E0,0E0,0E0,0E0,0E0,0E0,0E0,0E0,0E0],"parents":[2147483647,0,0,1,1,2,2,3,3,4,4,5,5,6,6,8,8,9,9,10,10,11,11,12,12,13,13,14,14],"right_children":[2,4,6,8,10,12,14,-1,16,18,20,22,24,26,28,-1,-1,-1,-1,-1,-1,-1,-1,-1,-1,-1,-1,-1,-1],"split_conditions":[5.1818E2,2.52E2,1E1,1.2E1,1E1,9.884E2,1.1914E3,-1.3657108E1,1.2465E2,4E0,9.63E2,7.64E2,7.97E2,7.41E2,3.7E1,-1.9810181E-2,-3.0818014E0,-9.139448E0,-4.9706535E0,-1.9146065E0,7.076294E-3,-4.6551895E0,-3.1388268E-2,8.588331E-1,4.550496E0,9.3874896E-1,6.01513E0,6.183414E-1,6.9989624E0],"split_indices":[2,1,0,0,0,2,2,0,2,0,1,1,1,1,1,0,0,0,0,0,0,0,0,0,0,0,0,0,0],"split_type":[0,0,0,0,0,0,0,0,0,0,0,0,0,0,0,0,0,0,0,0,0,0,0,0,0,0,0,0,0],"sum_hessian":[5.76E2,1.38E2,4.38E2,4.4E1,9.4E1,2.91E2,1.47E2,3.9E1,5E0,7.4E1,2E1,7.5E1,2.16E2,4.2E1,1.05E2,1E0,4E0,2.9E1,4.5E1,1.5E1,5E0,4.1E1,3.4E1,1.36E2,8E1,2.7E1,1.5E1,2E0,1.03E2],"tree_param":{"num_deleted":"0","num_feature":"3","num_nodes":"29","size_leaf_vector":"1"}},{"base_weights":[-7.52387E0,-2.302811E2,1.1214859E2,-3.9782306E2,-1.4237868E2,-3.3455613E0,1.7333812E2,-4.501757E2,-1.9313931E2,-2.7329596E2,-6.3479137E1,-8.1759895E1,7.881461E1,1.214873E2,2.4739964E2,-1.3654729E1,-1.0751189E0,-4.1949356E-1,-6.2252746E0,-8.376071E0,7.5583495E-2,-3.7199793E0,1.1643782E0,-3.0150516E0,8.708839E-1,-1.0077456E0,3.5217652E0,1.9663152E0,6.476728E0,8.590288E-1,7.5176497E0],"categories":[],"categories_nodes":[],"categories_segments":[],"categories_sizes":[],"default_left":[0,0,0,0,0,0,0,0,0,0,0,0,0,0,0,0,0,0,0,0,0,0,0,0,0,0,0,0,0,0,0],"id":28,"left_children":[1,3,5,7,9,11,13,15,17,19,21,23,25,27,29,-1,-1,-1,-1,-1,-1,-1,-1,-1,-1,-1,-1,-1,-1,-1,-1],"loss_changes":[1.5031016E7,2.617539E6,2.5966705E6,2.61146E5,1.3280365E6,8.8263706E5,7.709885E5,1.7033E4,4.1908125E4,8.524725E4,5.9369456E5,1.6000669E5,3.1033647E5,7.26438E5,2.94155E4,0E0,0E0,0E0,0E0,0E0,0E0,0E0,0E0,0E0,0E0,0E0,0E0,0E0,0E0,0E0,0E0],"parents":[2147483647,0,0,1,1,2,2,3,3,4,4,5,5,6,6,7,7,8,8,9,9,10,10,11,11,12,12,13,13,14,14],"right_children":[2,4,6,8,10,12,14,16,18,20,22,24,26,28,30,-1,-1,-1,-1,-1,-1,-1,-1,-1,-1,-1,-1,-1,-1,-1,-1],"split_conditions":[8.6393E2,4E0,6E0,7.64E2,3.68E2,6.21E2,8.1E2,8.2882E2,7.89E2,8.5379E2,4.7717E2,2.32969E3,1.30005E3,1.2E1,8.6537E2,-1.3654729E1,-1.0751189E0,-4.1949356E-1,-6.2252746E0,-8.376071E0,7.5583495E-2,-3.7199793E0,1.1643782E0,-3.0150516E0,8.708839E-1,-1.0077456E0,3.5217652E0,1.9663152E0,6.476728E0,8.590288E-1,7.5176497E0],"split_indices":[2,0,0,1,1,1,1,2,1,2,2,2,2,0,2,0,0,0,0,0,0,0,0,0,0,0,0,0,0,0,0],"split_type":[0,0,0,0,0,0,0,0,0,0,0,0,0,0,0,0,0,0,0,0,0,0,0,0,0,0,0,0,0,0,0],"sum_hessian":[5.54E2,1.92E2,3.62E2,6E1,1.32E2,1.27E2,2.35E2,4.3E1,1.7E1,4.5E1,8.7E1,6.5E1,6.2E1,1.46E2,8.9E1,4.2E1,1E0,2E0,1.5E1,4.4E1,1E0,5.4E1,3.3E1,5.6E1,9E0,1.6E1,4.6E1,9.7E1,4.9E1,2E0,8.7E1],"tree_param":{"num_deleted":"0","num_feature":"3","num_nodes":"31","size_leaf_vector":"1"}},{"base_weights":[-2.9827292E0,-2.0561708E2,1.2227983E2,-3.607739E2,-1.12916176E2,-6.216653E0,1.6718044E2,-4.1089664E2,-5.3284726E0,-1.85148E2,-9.757928E0,-8.061287E1,3.3096046E1,6.464255E1,1.9574936E2,-1.4675019E1,-7.8381095E0,-6.105289E0,9.236782E-1,-2.6599345E0,2.2558727E0,-4.0738373E0,4.6162043E-2,-1.5170889E-1,2.8281407E0,3.731507E-1,3.4004965E0,4.737742E0,7.583879E0],"categories":[],"categories_nodes":[],"categories_segments":[],"categories_sizes":[],"default_left":[0,0,0,0,0,0,0,0,0,0,0,0,0,0,0,0,0,0,0,0,0,0,0,0,0,0,0,0,0],"id":29,"left_children":[1,3,5,7,9,11,13,15,-1,17,19,21,23,25,27,-1,-1,-1,-1,-1,-1,-1,-1,-1,-1,-1,-1,-1,-1],"loss_changes":[1.4619203E7,2.96014E6,2.059324E6,3.68934E5,1.0712115E6,2.970848E5,7.09832E5,5.1194E4,0E0,3.68524E5,4.6907062E5,1.5984338E5,1.5885234E5,1.5810203E5,2.401605E5,0E0,0E0,0E0,0E0,0E0,0E0,0E0,0E0,0E0,0E0,0E0,0E0,0E0,0E0],"parents":[2147483647,0,0,1,1,2,2,3,3,4,4,5,5,6,6,7,7,9,9,10,10,11,11,12,12,13,13,14,14],"right_children":[2,4,6,8,10,12,14,16,-1,18,20,22,24,26,28,-1,-1,-1,-1,-1,-1,-1,-1,-1,-1,-1,-1,-1,-1],"split_conditions":[8.8884E2,5E0,5E0,5.5905E2,4.9045E2,1.40235E3,3.32E2,4.75E2,-5.3284726E0,1.092E3,6.36E2,6.21E2,4E0,1E1,8.97E2,-1.4675019E1,-7.8381095E0,-6.105289E0,9.236782E-1,-2.6599345E0,2.2558727E0,-4.0738373E0,4.6162043E-2,-1.5170889E-1,2.8281407E0,3.731507E-1,3.4004965E0,4.737742E0,7.583879E0],"split_indices":[2,0,0,2,2,2,1,1,0,1,1,1,0,0,1,0,0,0,0,0,0,0,0,0,0,0,0,0,0],"split_type":[0,0,0,0,0,0,0,0,0,0,0,0,0,0,0,0,0,0,0,0,0,0,0,0,0,0,0,0,0],"sum_hessian":[5.66E2,2.15E2,3.51E2,7.5E1,1.4E2,9.2E1,2.59E2,5.4E1,2.1E1,8E1,6E1,3E1,6.2E1,6E1,1.99E2,2.8E1,2.6E1,7.4E1,6E0,3.1E1,2.9E1,1.6E1,1.4E1,4.1E1,2.1E1,3.2E1,2.8E1,1.31E2,6.8E1],"tree_param":{"num_deleted":"0","num_feature":"3","num_nodes":"29","size_leaf_vector":"1"}},{"base_weights":[-2.9673545E0,-2.2078528E2,9.505829E1,-3.6724612E2,-1.344675E2,-1.775464E1,1.5335043E2,-4.4924576E2,-7.193482E0,-1.7910971E2,2.1352808E0,-1.2331016E2,2.45002E1,1.100106E2,2.4931696E2,-1.3689762E1,-1.1438812E0,-6.3328834E0,-1.648959E0,-1.2533853E0,1.7519096E0,-5.552655E0,-1.4755632E0,-2.1975374E0,1.8832141E0,5.004682E-1,4.397007E0,3.7904847E-1,7.5485115E0],"categories":[],"categories_nodes":[],"categories_segments":[],"categories_sizes":[],"default_left":[0,0,0,0,0,0,0,0,0,0,0,0,0,0,0,0,0,0,0,0,0,0,0,0,0,0,0,0,0],"id":30,"left_children":[1,3,5,7,9,11,13,15,-1,17,19,21,23,25,27,-1,-1,-1,-1,-1,-1,-1,-1,-1,-1,-1,-1,-1,-1],"loss_changes":[1.2040687E7,1.964965E6,2.5718548E6,1.08725E5,7.2168275E5,6.262561E5,9.31411E5,5.6465E3,0E0,2.95132E5,9.622012E4,1.3741956E5,4.0459347E5,6.2219475E5,2.5214E4,0E0,0E0,0E0,0E0,0E0,0E0,0E0,0E0,0E0,0E0,0E0,0E0,0E0,0E0],"parents":[2147483647,0,0,1,1,2,2,3,3,4,4,5,5,6,6,7,7,9,9,10,10,11,11,12,12,13,13,14,14],"right_children":[2,4,6,8,10,12,14,16,-1,18,20,22,24,26,28,-1,-1,-1,-1,-1,-1,-1,-1,-1,-1,-1,-1,-1,-1],"split_conditions":[7.2567E2,5E0,6E0,4.52E2,8.35E2,3.1069E2,8.89E2,6.4643E2,-7.193482E0,1.1E1,1E1,1.07487E3,2E0,1.20175E3,7.4182E2,-1.3689762E1,-1.1438812E0,-6.3328834E0,-1.648959E0,-1.2533853E0,1.7519096E0,-5.552655E0,-1.4755632E0,-2.1975374E0,1.8832141E0,5.004682E-1,4.397007E0,3.7904847E-1,7.5485115E0],"split_indices":[2,0,0,1,1,1,1,2,0,0,0,2,0,2,2,0,0,0,0,0,0,0,0,0,0,0,0,0,0],"split_type":[0,0,0,0,0,0,0,0,0,0,0,0,0,0,0,0,0,0,0,0,0,0,0,0,0,0,0,0,0],"sum_hessian":[5.54E2,1.7E2,3.84E2,5.7E1,1.13E2,1.32E2,2.52E2,2.7E1,3E1,8.4E1,2.9E1,3.5E1,9.7E1,1.81E2,7.1E1,2.6E1,1E0,6.4E1,2E1,1.7E1,1.2E1,1.5E1,2E1,2.6E1,7.1E1,5.3E1,1.28E2,1E0,7E1],"tree_param":{"num_deleted":"0","num_feature":"3","num_nodes":"29","size_leaf_vector":"1"}},{"base_weights":[-1.2181331E1,-1.8774944E2,9.1003006E1,-3.2682092E2,-1.1843871E2,-1.68589E1,1.329089E2,-1.1022041E1,-1.2542884E2,-2.4181679E2,-5.2232216E1,-1.072196E2,2.7624828E1,5.9128895E1,1.7808963E2,-4.121697E0,-1.993689E-1,-7.3857446E0,-1.1040954E-1,-3.339007E0,7.6216125E-1,-3.603793E0,-4.953247E-2,-1.5094187E0,2.0776274E0,-6.6767204E-1,2.9571638E0,4.351283E0,7.392139E0],"categories":[],"categories_nodes":[],"categories_segments":[],"categories_sizes":[],"default_left":[0,0,0,0,0,0,0,0,0,0,0,0,0,0,0,0,0,0,0,0,0,0,0,0,0,0,0,0,0],"id":31,"left_children":[1,3,5,7,9,11,13,-1,15,17,19,21,23,25,27,-1,-1,-1,-1,-1,-1,-1,-1,-1,-1,-1,-1,-1,-1],"loss_changes":[1.0429691E7,1.859152E6,1.6520978E6,3.24829E5,1.1618175E6,4.4096478E5,8.204715E5,0E0,2.2285469E4,4.83505E4,4.9115753E5,4.79385E4,2.6078223E5,3.5452306E5,1.82128E5,0E0,0E0,0E0,0E0,0E0,0E0,0E0,0E0,0E0,0E0,0E0,0E0,0E0,0E0],"parents":[2147483647,0,0,1,1,2,2,3,3,4,4,5,5,6,6,8,8,9,9,10,10,11,11,12,12,13,13,14,14],"right_children":[2,4,6,8,10,12,14,-1,16,18,20,22,24,26,28,-1,-1,-1,-1,-1,-1,-1,-1,-1,-1,-1,-1,-1,-1],"split_conditions":[9.1041E2,2.75E2,5E0,6.4643E2,5E0,3.1069E2,5.24E2,-1.1022041E1,1.1E1,8.8632E2,4.9045E2,2.32969E3,2E0,1.24205E3,1.2E1,-4.121697E0,-1.993689E-1,-7.3857446E0,-1.1040954E-1,-3.339007E0,7.6216125E-1,-3.603793E0,-4.953247E-2,-1.5094187E0,2.0776274E0,-6.6767204E-1,2.9571638E0,4.351283E0,7.392139E0],"split_indices":[2,1,0,2,0,1,1,0,0,2,2,2,0,2,0,0,0,0,0,0,0,0,0,0,0,0,0,0,0],"split_type":[0,0,0,0,0,0,0,0,0,0,0,0,0,0,0,0,0,0,0,0,0,0,0,0,0,0,0,0,0],"sum_hessian":[5.66E2,2.08E2,3.58E2,6.3E1,1.45E2,1.01E2,2.57E2,4.9E1,1.4E1,4.6E1,9.9E1,3.1E1,7E1,1.02E2,1.55E2,1.2E1,2E0,4.5E1,1E0,5.5E1,4.4E1,2.7E1,4E0,2.4E1,4.6E1,3.4E1,6.8E1,1.15E2,4E1],"tree_param":{"num_deleted":"0","num_feature":"3","num_nodes":"29","size_leaf_vector":"1"}},{"base_weights":[7.6270785E0,-2.0086768E2,9.841419E1,-3.436933E2,-1.17607895E2,4.758051E1,1.8848866E2,-1.1792516E1,-5.0699883E0,-2.0802417E2,-4.2241673E1,-1.9912003E1,1.1801374E2,4.5264347E1,2.0271121E2,-7.886885E0,-3.631071E0,-2.5820708E0,1.9224064E0,-3.5319328E0,3.528258E-2,1.1299163E0,4.369513E0,-1.27664795E-2,1.8541672E0,4.681773E0,7.975393E0],"categories":[],"categories_nodes":[],"categories_segments":[],"categories_sizes":[],"default_left":[0,0,0,0,0,0,0,0,0,0,0,0,0,0,0,0,0,0,0,0,0,0,0,0,0,0,0],"id":32,"left_children":[1,3,5,7,9,11,13,-1,-1,15,17,19,21,23,25,-1,-1,-1,-1,-1,-1,-1,-1,-1,-1,-1,-1],"loss_changes":[1.0604132E7,1.819011E6,1.7406605E6,1.849755E5,7.394615E5,1.2287988E6,2.37019E5,0E0,0E0,8.395175E4,3.491253E5,2.7928925E5,2.5218412E5,1.4552461E4,1.60313E5,0E0,0E0,0E0,0E0,0E0,0E0,0E0,0E0,0E0,0E0,0E0,0E0],"parents":[2147483647,0,0,1,1,2,2,3,3,4,4,5,5,6,6,9,9,10,10,11,11,12,12,13,13,14,14],"right_children":[2,4,6,8,10,12,14,-1,-1,16,18,20,22,24,26,-1,-1,-1,-1,-1,-1,-1,-1,-1,-1,-1,-1],"split_conditions":[7.2567E2,5E0,1E1,8.55E2,4.81E2,6.44E2,8.4E1,-1.1792516E1,-5.0699883E0,2.11E2,1.1E1,9.5887E2,4E0,3.7E1,1.3E1,-7.886885E0,-3.631071E0,-2.5820708E0,1.9224064E0,-3.5319328E0,3.528258E-2,1.1299163E0,4.369513E0,-1.27664795E-2,1.8541672E0,4.681773E0,7.975393E0],"split_indices":[2,0,0,1,1,1,1,0,0,1,0,2,0,1,0,0,0,0,0,0,0,0,0,0,0,0,0],"split_type":[0,0,0,0,0,0,0,0,0,0,0,0,0,0,0,0,0,0,0,0,0,0,0,0,0,0,0],"sum_hessian":[5.5E2,1.65E2,3.85E2,5.5E1,1.1E2,2.51E2,1.34E2,3.8E1,1.7E1,4.6E1,6.4E1,1.3E2,1.21E2,1.4E1,1.2E2,2.2E1,2.4E1,4.6E1,1.8E1,1.9E1,1.11E2,3.4E1,8.7E1,5E0,9E0,7.9E1,4.1E1],"tree_param":{"num_deleted":"0","num_feature":"3","num_nodes":"27","size_leaf_vector":"1"}},{"base_weights":[-9.685114E0,-2.2278813E2,7.861225E1,-1.1060462E1,-1.472149E2,-4.6506138E1,1.09553795E2,-2.5848334E2,-8.123505E1,-3.9903505E0,-1.2821917E1,6.2474686E1,1.9248756E2,-7.9742093E0,-9.558042E-1,-3.2724054E0,9.6914816E-1,-1.6011372E0,5.516273E-1,-1.087542E0,3.362201E0,2.6080487E0,6.5441914E0],"categories":[],"categories_nodes":[],"categories_segments":[],"categories_sizes":[],"default_left":[0,0,0,0,0,0,0,0,0,0,0,0,0,0,0,0,0,0,0,0,0,0,0],"id":33,"left_children":[1,3,5,-1,7,9,11,13,15,-1,17,19,21,-1,-1,-1,-1,-1,-1,-1,-1,-1,-1],"loss_changes":[1.0794265E7,1.58042E6,1.5973082E6,0E0,7.6830625E5,2.3609212E5,1.2163712E6,2.706675E4,2.7694194E5,0E0,8.846639E4,1.0780738E6,2.18963E5,0E0,0E0,0E0,0E0,0E0,0E0,0E0,0E0,0E0,0E0],"parents":[2147483647,0,0,1,1,2,2,4,4,5,5,6,6,7,7,8,8,10,10,11,11,12,12],"right_children":[2,4,6,-1,8,10,12,14,16,-1,18,20,22,-1,-1,-1,-1,-1,-1,-1,-1,-1,-1],"split_conditions":[6.4643E2,2.65E2,4E0,-1.1060462E1,5E0,1.07487E3,8.15E2,5.9165E2,4.9549E2,-3.9903505E0,2E0,1.1914E3,7E0,-7.9742093E0,-9.558042E-1,-3.2724054E0,9.6914816E-1,-1.6011372E0,5.516273E-1,-1.087542E0,3.362201E0,2.6080487E0,6.5441914E0],"split_indices":[2,1,0,0,0,2,1,2,2,0,0,2,0,0,0,0,0,0,0,0,0,0,0],"split_type":[0,0,0,0,0,0,0,0,0,0,0,0,0,0,0,0,0,0,0,0,0,0,0],"sum_hessian":[5.64E2,1.63E2,4.01E2,4.9E1,1.14E2,7.9E1,3.22E2,3.7E1,7.7E1,1.8E1,6.1E1,2.11E2,1.11E2,3.5E1,2E0,6.2E1,1.5E1,2.5E1,3.6E1,7.1E1,1.4E2,2.6E1,8.5E1],"tree_param":{"num_deleted":"0","num_feature":"3","num_nodes":"23","size_leaf_vector":"1"}},{"base_weights":[5.242884E0,-1.554191E2,1.15041466E2,-2.5205827E2,-6.801743E1,-2.6717388E1,1.4651688E2,-3.3516324E2,-1.6178264E2,-1.523112E2,4.5954185E0,-6.92335E1,1.593868E1,7.256825E1,1.9985582E2,-1.0177425E1,-6.701593E-1,-5.7751913E0,-1.7652537E0,-5.769459E0,-2.3734443E0,-1.7703029E0,2.9480655E0,-2.4976118E0,4.2884275E-1,-7.3861206E-1,1.5245721E0,8.9041877E-1,4.1074395E0,6.2581954E0,2.2721274E0],"categories":[],"categories_nodes":[],"categories_segments":[],"categories_sizes":[],"default_left":[0,0,0,0,0,0,0,0,0,0,0,0,0,0,0,0,0,0,0,0,0,0,0,0,0,0,0,0,0,0,0],"id":34,"left_children":[1,3,5,7,9,11,13,15,17,19,21,23,25,27,29,-1,-1,-1,-1,-1,-1,-1,-1,-1,-1,-1,-1,-1,-1,-1,-1],"loss_changes":[9.773969E6,1.814404E6,1.4876635E6,5.161325E5,7.687488E5,1.21639234E5,9.92184E5,2.563E4,1.3287512E5,9.3486625E4,4.5802012E5,4.466525E4,5.7211934E4,3.1343425E5,8.7982E4,0E0,0E0,0E0,0E0,0E0,0E0,0E0,0E0,0E0,0E0,0E0,0E0,0E0,0E0,0E0,0E0],"parents":[2147483647,0,0,1,1,2,2,3,3,4,4,5,5,6,6,7,7,8,8,9,9,10,10,11,11,12,12,13,13,14,14],"right_children":[2,4,6,8,10,12,14,16,18,20,22,24,26,28,30,-1,-1,-1,-1,-1,-1,-1,-1,-1,-1,-1,-1,-1,-1,-1,-1],"split_conditions":[9.5192E2,4.82E2,4E0,6E0,7E0,2E0,5.64E2,4.75E2,6.5524E2,5.844E2,5.5498E2,1.089E3,5.04E2,1.1E1,2.39084E3,-1.0177425E1,-6.701593E-1,-5.7751913E0,-1.7652537E0,-5.769459E0,-2.3734443E0,-1.7703029E0,2.9480655E0,-2.4976118E0,4.2884275E-1,-7.3861206E-1,1.5245721E0,8.9041877E-1,4.1074395E0,6.2581954E0,2.2721274E0],"split_indices":[2,1,0,0,0,0,1,1,2,2,2,1,1,0,2,0,0,0,0,0,0,0,0,0,0,0,0,0,0,0,0],"split_type":[0,0,0,0,0,0,0,0,0,0,0,0,0,0,0,0,0,0,0,0,0,0,0,0,0,0,0,0,0,0,0],"sum_hessian":[5.44E2,2.2E2,3.24E2,1E2,1.2E2,5.9E1,2.65E2,4.5E1,5.5E1,5.3E1,6.7E1,2.8E1,3.1E1,1.16E2,1.49E2,4.4E1,1E0,3.9E1,1.6E1,2.9E1,2.4E1,4.1E1,2.6E1,2.4E1,4E0,1.5E1,1.6E1,7.4E1,4.2E1,1.36E2,1.3E1],"tree_param":{"num_deleted":"0","num_feature":"3","num_nodes":"31","size_leaf_vector":"1"}},{"base_weights":[-1.2018219E1,-1.6515173E2,1.0441268E2,-2.5812363E2,-8.228463E1,1.5093374E1,1.4851924E2,-3.416296E2,-1.6206873E2,-1.4101535E2,5.1759567E1,-9.377503E1,3.0079521E1,6.7995476E1,1.7344504E2,-1.0346476E1,-7.9232085E-1,-5.05595E0,-3.6536086E-1,-5.2653E0,-1.5073357E0,-2.9047674E-1,4.2501817E0,-3.1836898E0,3.9048216E-1,-1.4464098E-1,2.2918918E0,1.0314184E0,4.4888964E0,4.261869E0,6.772505E0],"categories":[],"categories_nodes":[],"categories_segments":[],"categories_sizes":[],"default_left":[0,0,0,0,0,0,0,0,0,0,0,0,0,0,0,0,0,0,0,0,0,0,0,0,0,0,0,0,0,0,0],"id":35,"left_children":[1,3,5,7,9,11,13,15,17,19,21,23,25,27,29,-1,-1,-1,-1,-1,-1,-1,-1,-1,-1,-1,-1,-1,-1,-1,-1],"loss_changes":[1.0284739E7,1.811835E6,1.2808062E6,6.450915E5,1.1308628E6,2.0003288E5,3.803505E5,1.25335E4,5.0587E4,2.6253088E5,2.6111572E5,2.6779438E4,1.7002925E5,1.387419E5,1.08481E5,0E0,0E0,0E0,0E0,0E0,0E0,0E0,0E0,0E0,0E0,0E0,0E0,0E0,0E0,0E0,0E0],"parents":[2147483647,0,0,1,1,2,2,3,3,4,4,5,5,6,6,7,7,8,8,9,9,10,10,11,11,12,12,13,13,14,14],"right_children":[2,4,6,8,10,12,14,16,18,20,22,24,26,28,30,-1,-1,-1,-1,-1,-1,-1,-1,-1,-1,-1,-1,-1,-1,-1,-1],"split_conditions":[9.7473E2,6E0,6E0,4.155E2,7.92E2,1.25E2,3.2E2,1.07E3,9.5887E2,1.1E1,6.3188E2,5E0,4E0,1.3E1,1.2E1,-1.0346476E1,-7.9232085E-1,-5.05595E0,-3.6536086E-1,-5.2653E0,-1.5073357E0,-2.9047674E-1,4.2501817E0,-3.1836898E0,3.9048216E-1,-1.4464098E-1,2.2918918E0,1.0314184E0,4.4888964E0,4.261869E0,6.772505E0],"split_indices":[2,0,0,2,1,1,1,1,2,0,2,0,0,0,0,0,0,0,0,0,0,0,0,0,0,0,0,0,0,0,0],"split_type":[0,0,0,0,0,0,0,0,0,0,0,0,0,0,0,0,0,0,0,0,0,0,0,0,0,0,0,0,0,0,0],"sum_hessian":[5.67E2,2.44E2,3.23E2,1.1E2,1.34E2,1.09E2,2.14E2,5.2E1,5.8E1,9.3E1,4.1E1,1E1,9.9E1,5.5E1,1.59E2,5.1E1,1E0,5.5E1,3E0,6.4E1,2.9E1,2.7E1,1.4E1,9E0,1E0,5.9E1,4E1,4.4E1,1.1E1,1.11E2,4.8E1],"tree_param":{"num_deleted":"0","num_feature":"3","num_nodes":"31","size_leaf_vector":"1"}},{"base_weights":[-2.8605993E0,-1.811214E2,8.092414E1,-3.1122943E2,-1.2299849E2,-3.86898E1,1.1136712E2,-9.835216E0,-7.744255E1,-1.5313863E2,1.6261076E1,-1.0226242E2,2.546736E0,7.042993E1,1.893779E2,2.371997E-1,-2.7428849E0,-8.044602E0,-3.567706E0,-1.168359E0,2.314651E0,-3.7251155E0,-1.0792922E0,-1.2076797E0,9.468579E-1,-4.9720082E-1,3.238529E0,3.3172884E0,6.233087E0],"categories":[],"categories_nodes":[],"categories_segments":[],"categories_sizes":[],"default_left":[0,0,0,0,0,0,0,0,0,0,0,0,0,0,0,0,0,0,0,0,0,0,0,0,0,0,0,0,0],"id":36,"left_children":[1,3,5,7,9,11,13,-1,15,17,19,21,23,25,27,-1,-1,-1,-1,-1,-1,-1,-1,-1,-1,-1,-1,-1,-1],"loss_changes":[8.3626075E6,1.1618065E6,1.4089918E6,7.45905E4,5.666319E5,2.1374461E5,9.0708125E5,0E0,1.5635781E4,2.691055E5,1.0919092E5,2.3974188E4,7.340829E4,6.880431E5,3.2638E4,0E0,0E0,0E0,0E0,0E0,0E0,0E0,0E0,0E0,0E0,0E0,0E0,0E0,0E0],"parents":[2147483647,0,0,1,1,2,2,3,3,4,4,5,5,6,6,8,8,9,9,10,10,11,11,12,12,13,13,14,14],"right_children":[2,4,6,8,10,12,14,-1,16,18,20,22,24,26,28,-1,-1,-1,-1,-1,-1,-1,-1,-1,-1,-1,-1,-1,-1],"split_conditions":[7.5827E2,2.65E2,4E0,1.1E1,1.1E1,1.36429E3,8.44E2,-9.835216E0,1.2465E2,3E0,3.7812E2,6.21E2,2E0,1.1914E3,7E0,2.371997E-1,-2.7428849E0,-8.044602E0,-3.567706E0,-1.168359E0,2.314651E0,-3.7251155E0,-1.0792922E0,-1.2076797E0,9.468579E-1,-4.9720082E-1,3.238529E0,3.3172884E0,6.233087E0],"split_indices":[2,1,0,0,0,2,1,0,2,0,2,1,0,2,0,0,0,0,0,0,0,0,0,0,0,0,0,0,0],"split_type":[0,0,0,0,0,0,0,0,0,0,0,0,0,0,0,0,0,0,0,0,0,0,0,0,0,0,0,0,0],"sum_hessian":[5.5E2,1.74E2,3.76E2,4.7E1,1.27E2,7.6E1,3E2,4.2E1,5E0,1.04E2,2.3E1,2.7E1,4.9E1,2.03E2,9.7E1,1E0,4E0,1.6E1,8.8E1,1.3E1,1E1,1.7E1,1E1,1.9E1,3E1,6.2E1,1.41E2,2.5E1,7.2E1],"tree_param":{"num_deleted":"0","num_feature":"3","num_nodes":"29","size_leaf_vector":"1"}},{"base_weights":[8.553694E0,-1.7971996E2,9.4624794E1,-2.5360443E2,-8.4698006E1,1.1815936E1,1.367373E2,-2.6700348E2,3.1587769E1,-1.06042534E2,5.4459507E1,-3.84482E1,5.993672E1,1.0392688E2,2.4302751E2,-1.094819E1,-6.0944004E0,1.1232558E0,-7.122497E-2,-4.006959E0,-3.3443376E-1,2.7354655E-1,2.0013506E0,-3.8516355E0,-4.0715453E-1,-1.3016634E-1,2.3851435E0,6.2199223E-1,3.809705E0,8.421282E0,4.067947E0],"categories":[],"categories_nodes":[],"categories_segments":[],"categories_sizes":[],"default_left":[0,0,0,0,0,0,0,0,0,0,0,0,0,0,0,0,0,0,0,0,0,0,0,0,0,0,0,0,0,0,0],"id":37,"left_children":[1,3,5,7,9,11,13,15,17,19,21,23,25,27,29,-1,-1,-1,-1,-1,-1,-1,-1,-1,-1,-1,-1,-1,-1,-1,-1],"loss_changes":[9.500004E6,1.1840615E6,1.393663E6,4.28357E5,2.903087E5,3.525875E5,8.010235E5,2.353785E5,2.2688818E3,1.9612825E5,5.21566E3,1.522366E5,9.487341E4,3.93457E5,4.810525E4,0E0,0E0,0E0,0E0,0E0,0E0,0E0,0E0,0E0,0E0,0E0,0E0,0E0,0E0,0E0,0E0],"parents":[2147483647,0,0,1,1,2,2,3,3,4,4,5,5,6,6,7,7,8,8,9,9,10,10,11,11,12,12,13,13,14,14],"right_children":[2,4,6,8,10,12,14,16,18,20,22,24,26,28,30,-1,-1,-1,-1,-1,-1,-1,-1,-1,-1,-1,-1,-1,-1,-1,-1],"split_conditions":[7.5827E2,6.01E2,6E0,1.4E1,1.102E3,6.18E2,9.92E2,4E0,4.96E2,5.885E2,2.7193E2,7.5E1,1.30005E3,1.14693E3,1.80949E3,-1.094819E1,-6.0944004E0,1.1232558E0,-7.122497E-2,-4.006959E0,-3.3443376E-1,2.7354655E-1,2.0013506E0,-3.8516355E0,-4.0715453E-1,-1.3016634E-1,2.3851435E0,6.2199223E-1,3.809705E0,8.421282E0,4.067947E0],"split_indices":[2,1,0,0,1,1,1,0,1,2,2,1,2,2,2,0,0,0,0,0,0,0,0,0,0,0,0,0,0,0,0],"split_type":[0,0,0,0,0,0,0,0,0,0,0,0,0,0,0,0,0,0,0,0,0,0,0,0,0,0,0,0,0,0,0],"sum_hessian":[5.76E2,1.79E2,3.97E2,9.6E1,8.3E1,1.36E2,2.61E2,9.2E1,4E0,7.3E1,1E1,6.7E1,6.9E1,2.07E2,5.4E1,2.7E1,6.5E1,3E0,1E0,5.5E1,1.8E1,4E0,6E0,1E1,5.7E1,1.7E1,5.2E1,4.7E1,1.6E2,3.4E1,2E1],"tree_param":{"num_deleted":"0","num_feature":"3","num_nodes":"31","size_leaf_vector":"1"}},{"base_weights":[2.7792783E0,-1.733862E2,9.060243E1,-2.669733E2,-8.6494026E1,3.1787514E1,1.4950288E2,-3.0118088E2,-9.119019E1,-1.3731514E2,-3.0487008E0,-1.1547264E1,1.2988866E2,1.8652805E1,1.7396022E2,-9.489892E0,-3.2506669E0,-3.293004E0,2.939438E-1,-4.865664E0,-4.918776E-1,-9.801906E-1,1.0994691E0,-2.629331E0,3.4333113E-1,-1.4168183E0,4.4875627E0,-1.2121959E0,1.3757694E0,1.8860416E0,5.42236E0],"categories":[],"categories_nodes":[],"categories_segments":[],"categories_sizes":[],"default_left":[0,0,0,0,0,0,0,0,0,0,0,0,0,0,0,0,0,0,0,0,0,0,0,0,0,0,0,0,0,0,0],"id":38,"left_children":[1,3,5,7,9,11,13,15,17,19,21,23,25,27,29,-1,-1,-1,-1,-1,-1,-1,-1,-1,-1,-1,-1,-1,-1,-1,-1],"loss_changes":[9.020937E6,1.4617935E6,1.323641E6,4.09478E5,4.557712E5,8.62107E5,6.0123E5,4.4355E4,4.6749984E4,1.8804138E5,6.007994E4,2.5703333E5,2.5171881E5,6.7114484E4,6.5052E4,0E0,0E0,0E0,0E0,0E0,0E0,0E0,0E0,0E0,0E0,0E0,0E0,0E0,0E0,0E0,0E0],"parents":[2147483647,0,0,1,1,2,2,3,3,4,4,5,5,6,6,7,7,8,8,9,9,10,10,11,11,12,12,13,13,14,14],"right_children":[2,4,6,8,10,12,14,16,18,20,22,24,26,28,30,-1,-1,-1,-1,-1,-1,-1,-1,-1,-1,-1,-1,-1,-1,-1,-1],"split_conditions":[8.2882E2,4.75E2,6.44E2,1.1E1,8E0,1.1E1,4E0,7.2067E2,6.1942E2,6.1942E2,9.38E2,1.04984E3,9.6769E2,1.51978E3,9.1041E2,-9.489892E0,-3.2506669E0,-3.293004E0,2.939438E-1,-4.865664E0,-4.918776E-1,-9.801906E-1,1.0994691E0,-2.629331E0,3.4333113E-1,-1.4168183E0,4.4875627E0,-1.2121959E0,1.3757694E0,1.8860416E0,5.42236E0],"split_indices":[2,1,1,0,0,0,0,2,2,2,1,2,2,2,2,0,0,0,0,0,0,0,0,0,0,0,0,0,0,0,0],"split_type":[0,0,0,0,0,0,0,0,0,0,0,0,0,0,0,0,0,0,0,0,0,0,0,0,0,0,0,0,0,0,0],"sum_hessian":[5.73E2,1.89E2,3.84E2,8.6E1,1.03E2,1.96E2,1.88E2,6.9E1,1.7E1,6.2E1,4.1E1,1.39E2,5.7E1,3.1E1,1.57E2,6.1E1,8E0,1.4E1,3E0,5E1,1.2E1,2.4E1,1.7E1,2.9E1,1.1E2,5E0,5.2E1,9E0,2.2E1,1.2E1,1.45E2],"tree_param":{"num_deleted":"0","num_feature":"3","num_nodes":"31","size_leaf_vector":"1"}},{"base_weights":[-5.988099E-1,-1.7402821E2,7.9823746E1,-3.2150604E2,-1.1767909E2,-4.4332333E1,1.0812684E2,-9.968219E0,-2.8646833E1,-2.0978035E2,-6.2207214E1,-7.39646E1,2.0000084E1,6.7768524E1,1.968151E2,-1.2545013E0,2.4686219E-1,-6.656E0,-1.6570895E0,-2.5183628E0,1.8127972E0,-2.9503703E0,-1.0033692E0,-1.2329988E0,1.4596527E0,4.2675406E-1,3.2297227E0,7.2337365E0,3.4653232E0],"categories":[],"categories_nodes":[],"categories_segments":[],"categories_sizes":[],"default_left":[0,0,0,0,0,0,0,0,0,0,0,0,0,0,0,0,0,0,0,0,0,0,0,0,0,0,0,0,0],"id":39,"left_children":[1,3,5,7,9,11,13,-1,15,17,19,21,23,25,27,-1,-1,-1,-1,-1,-1,-1,-1,-1,-1,-1,-1,-1,-1],"loss_changes":[7.308375E6,1.189889E6,1.282044E6,8.76455E4,5.884345E5,1.4089255E5,9.8178325E5,0E0,5.1536094E3,2.436925E4,2.5731428E5,3.1828938E4,5.5527547E4,4.3860038E5,1.8100825E5,0E0,0E0,0E0,0E0,0E0,0E0,0E0,0E0,0E0,0E0,0E0,0E0,0E0,0E0],"parents":[2147483647,0,0,1,1,2,2,3,3,4,4,5,5,6,6,8,8,9,9,10,10,11,11,12,12,13,13,14,14],"right_children":[2,4,6,8,10,12,14,-1,16,18,20,22,24,26,28,-1,-1,-1,-1,-1,-1,-1,-1,-1,-1,-1,-1,-1,-1],"split_conditions":[7.5827E2,2.11E2,4E0,1.4E1,5E0,1.81719E3,8.69E2,-9.968219E0,7E1,5.844E2,1.3E1,2E0,2.99E2,1.42094E3,1.80949E3,-1.2545013E0,2.4686219E-1,-6.656E0,-1.6570895E0,-2.5183628E0,1.8127972E0,-2.9503703E0,-1.0033692E0,-1.2329988E0,1.4596527E0,4.2675406E-1,3.2297227E0,7.2337365E0,3.4653232E0],"split_indices":[2,1,0,0,0,2,1,0,1,2,0,0,1,2,2,0,0,0,0,0,0,0,0,0,0,0,0,0,0],"split_type":[0,0,0,0,0,0,0,0,0,0,0,0,0,0,0,0,0,0,0,0,0,0,0,0,0,0,0,0,0],"sum_hessian":[5.14E2,1.61E2,3.53E2,3.8E1,1.23E2,6.5E1,2.88E2,3.6E1,2E0,4.1E1,8.2E1,4.4E1,2.1E1,2.04E2,8.4E1,1E0,1E0,3.6E1,5E0,7.1E1,1.1E1,2.3E1,2.1E1,6E0,1.5E1,9E1,1.14E2,4.8E1,3.6E1],"tree_param":{"num_deleted":"0","num_feature":"3","num_nodes":"29","size_leaf_vector":"1"}},{"base_weights":[-5.9343996E0,-1.6684825E2,6.904001E1,-2.892006E2,-1.13532974E2,2.3441648E1,1.546324E2,-9.337636E0,-8.5914665E1,-1.8619237E2,-5.3587677E1,-4.1124603E1,8.7134155E1,8.296081E1,1.9190034E2,2.4562806E-1,-2.948459E0,-6.084098E0,-2.3433604E0,-2.691574E0,2.0063488E-1,-3.370727E0,-2.6657063E-1,1.01421E0,3.7112787E0,-1.0706997E0,3.3022852E0,5.9353657E0,1.4486626E0],"categories":[],"categories_nodes":[],"categories_segments":[],"categories_sizes":[],"default_left":[0,0,0,0,0,0,0,0,0,0,0,0,0,0,0,0,0,0,0,0,0,0,0,0,0,0,0,0,0],"id":40,"left_children":[1,3,5,7,9,11,13,-1,15,17,19,21,23,25,27,-1,-1,-1,-1,-1,-1,-1,-1,-1,-1,-1,-1,-1,-1],"loss_changes":[6.910285E6,1.0226595E6,1.5077208E6,9.9026E4,5.378766E5,1.0912955E6,2.80716E5,0E0,1.8079055E4,2.64355E4,1.7948836E5,3.0031788E5,2.3834094E5,1.9666678E5,2.4558E4,0E0,0E0,0E0,0E0,0E0,0E0,0E0,0E0,0E0,0E0,0E0,0E0,0E0,0E0],"parents":[2147483647,0,0,1,1,2,2,3,3,4,4,5,5,6,6,8,8,9,9,10,10,11,11,12,12,13,13,14,14],"right_children":[2,4,6,8,10,12,14,-1,16,18,20,22,24,26,28,-1,-1,-1,-1,-1,-1,-1,-1,-1,-1,-1,-1,-1,-1],"split_conditions":[7.2567E2,2.52E2,1E1,1.2E1,6E0,6.22E2,5E2,-9.337636E0,1.2465E2,5.1994E2,8.35E2,1.07244E3,5E0,9.6769E2,2.46429E3,2.4562806E-1,-2.948459E0,-6.084098E0,-2.3433604E0,-2.691574E0,2.0063488E-1,-3.370727E0,-2.6657063E-1,1.01421E0,3.7112787E0,-1.0706997E0,3.3022852E0,5.9353657E0,1.4486626E0],"split_indices":[2,1,0,0,0,1,1,0,2,2,1,2,0,2,2,0,0,0,0,0,0,0,0,0,0,0,0,0,0],"split_type":[0,0,0,0,0,0,0,0,0,0,0,0,0,0,0,0,0,0,0,0,0,0,0,0,0,0,0,0,0],"sum_hessian":[5.63E2,1.77E2,3.86E2,4.7E1,1.3E2,2.56E2,1.3E2,4E1,7E0,5.4E1,7.6E1,1.28E2,1.28E2,5E1,8E1,1E0,6E0,4.3E1,1.1E1,4.6E1,3E1,3.6E1,9.2E1,5.6E1,7.2E1,9E0,4.1E1,7.5E1,5E0],"tree_param":{"num_deleted":"0","num_feature":"3","num_nodes":"29","size_leaf_vector":"1"}},{"base_weights":[-2.8456256E0,-1.3298705E2,8.099389E1,-1.8529208E2,-1.476912E1,4.0754894E1,1.7042255E2,-9.169595E0,-1.4380666E2,-1.1015917E2,5.8428997E1,-1.9146336E1,9.258332E1,3.6739677E1,1.8439877E2,-5.932533E0,-3.2478786E0,-3.89672E0,-8.930445E-1,7.6199524E-2,3.9373837E0,-2.0506704E0,3.8170245E-1,2.4879257E-1,3.7054868E0,8.881103E-2,1.4004788E0,4.1693096E0,6.993297E0],"categories":[],"categories_nodes":[],"categories_segments":[],"categories_sizes":[],"default_left":[0,0,0,0,0,0,0,0,0,0,0,0,0,0,0,0,0,0,0,0,0,0,0,0,0,0,0,0,0],"id":41,"left_children":[1,3,5,7,9,11,13,-1,15,17,19,21,23,25,27,-1,-1,-1,-1,-1,-1,-1,-1,-1,-1,-1,-1,-1,-1],"loss_changes":[6.0440435E6,1.3279135E6,1.177762E6,5.2876E5,5.34965E5,7.509328E5,1.583485E5,0E0,1.246545E5,3.285303E4,1.772652E5,1.8475752E5,3.310935E5,4.6332227E3,4.11975E4,0E0,0E0,0E0,0E0,0E0,0E0,0E0,0E0,0E0,0E0,0E0,0E0,0E0,0E0],"parents":[2147483647,0,0,1,1,2,2,3,3,4,4,5,5,6,6,8,8,9,9,10,10,11,11,12,12,13,13,14,14],"right_children":[2,4,6,8,10,12,14,-1,16,18,20,22,24,26,28,-1,-1,-1,-1,-1,-1,-1,-1,-1,-1,-1,-1,-1,-1],"split_conditions":[9.5192E2,8.35E2,1.1E1,3E0,6E0,6.21E2,8.7E1,-9.169595E0,2.11E2,5E0,5.9165E2,1.42094E3,4E0,1.12952E3,1.3E1,-5.932533E0,-3.2478786E0,-3.89672E0,-8.930445E-1,7.6199524E-2,3.9373837E0,-2.0506704E0,3.8170245E-1,2.4879257E-1,3.7054868E0,8.881103E-2,1.4004788E0,4.1693096E0,6.993297E0],"split_indices":[2,1,0,0,0,1,1,0,1,0,2,2,0,2,0,0,0,0,0,0,0,0,0,0,0,0,0,0,0],"split_type":[0,0,0,0,0,0,0,0,0,0,0,0,0,0,0,0,0,0,0,0,0,0,0,0,0,0,0,0,0],"sum_hessian":[5.44E2,2.12E2,3.32E2,1.45E2,6.7E1,2.34E2,9.8E1,2.9E1,1.16E2,2.8E1,3.9E1,1.1E2,1.24E2,1.1E1,8.7E1,3.7E1,7.9E1,2E1,8E0,2.5E1,1.4E1,4.1E1,6.9E1,3.5E1,8.9E1,4E0,7E0,5.5E1,3.2E1],"tree_param":{"num_deleted":"0","num_feature":"3","num_nodes":"29","size_leaf_vector":"1"}},{"base_weights":[-8.378363E0,-1.7721873E2,6.0354485E1,-2.5423163E2,-7.922834E1,5.2319374E0,1.3586497E2,-2.775383E2,-7.383319E1,-1.09012535E2,5.1932693E1,-5.3651012E1,5.924196E1,9.885775E1,2.2974255E2,-1.0424045E1,-6.150281E0,4.082399E-1,-2.7028406E0,-4.2761655E0,-1.6157739E0,-1.4361939E-1,2.7088258E0,-2.9814494E0,-2.6145178E-1,1.3908373E-1,2.9186056E0,6.2045646E-1,3.8306012E0,7.9164047E0,2.6242995E0],"categories":[],"categories_nodes":[],"categories_segments":[],"categories_sizes":[],"default_left":[0,0,0,0,0,0,0,0,0,0,0,0,0,0,0,0,0,0,0,0,0,0,0,0,0,0,0,0,0,0,0],"id":42,"left_children":[1,3,5,7,9,11,13,15,17,19,21,23,25,27,29,-1,-1,-1,-1,-1,-1,-1,-1,-1,-1,-1,-1,-1,-1,-1,-1],"loss_changes":[6.540724E6,1.1290385E6,1.6653992E6,2.713905E5,3.3697916E5,7.696213E5,4.732435E5,3.3816E4,3.0379234E4,8.345844E4,4.1412414E4,2.3393544E5,2.5940453E5,2.7963238E5,9.7923E4,0E0,0E0,0E0,0E0,0E0,0E0,0E0,0E0,0E0,0E0,0E0,0E0,0E0,0E0,0E0,0E0],"parents":[2147483647,0,0,1,1,2,2,3,3,4,4,5,5,6,6,7,7,8,8,9,9,10,10,11,11,12,12,13,13,14,14],"right_children":[2,4,6,8,10,12,14,16,18,20,22,24,26,28,30,-1,-1,-1,-1,-1,-1,-1,-1,-1,-1,-1,-1,-1,-1,-1,-1],"split_conditions":[6.649E2,5.7E2,9E0,1.1E1,1.2E1,6.18E2,9.34E2,4E0,1.2465E2,6E0,3.7398E2,1.42094E3,5E0,1.20175E3,1.80949E3,-1.0424045E1,-6.150281E0,4.082399E-1,-2.7028406E0,-4.2761655E0,-1.6157739E0,-1.4361939E-1,2.7088258E0,-2.9814494E0,-2.6145178E-1,1.3908373E-1,2.9186056E0,6.2045646E-1,3.8306012E0,7.9164047E0,2.6242995E0],"split_indices":[2,1,0,0,0,1,1,0,2,0,2,2,0,2,2,0,0,0,0,0,0,0,0,0,0,0,0,0,0,0,0],"split_type":[0,0,0,0,0,0,0,0,0,0,0,0,0,0,0,0,0,0,0,0,0,0,0,0,0,0,0,0,0,0,0],"sum_hessian":[5.54E2,1.58E2,3.96E2,8.4E1,7.4E1,2.32E2,1.64E2,7.2E1,1.2E1,6.1E1,1.3E1,1.11E2,1.21E2,1.25E2,3.9E1,2.7E1,4.5E1,2E0,1E1,3.3E1,2.8E1,7E0,6E0,5.2E1,5.9E1,5.2E1,6.9E1,3.6E1,8.9E1,2.8E1,1.1E1],"tree_param":{"num_deleted":"0","num_feature":"3","num_nodes":"31","size_leaf_vector":"1"}},{"base_weights":[-4.741225E0,-1.3025713E2,8.487288E1,-2.1116655E2,-6.6314095E1,4.291429E1,1.5487169E2,-2.603419E2,-8.121566E1,-8.601122E1,7.135176E1,-1.7269255E1,8.63296E1,8.8486664E1,1.7571834E2,-1.0911285E1,-6.004866E0,-3.2744002E0,5.313974E-1,-3.2177777E0,-7.3029983E-1,-1.3191216E0,3.7354846E0,-3.2107606E0,7.866308E-2,9.5807654E-1,3.1527903E0,1.2805254E0,3.2453701E0,5.550976E0,1.209732E0],"categories":[],"categories_nodes":[],"categories_segments":[],"categories_sizes":[],"default_left":[0,0,0,0,0,0,0,0,0,0,0,0,0,0,0,0,0,0,0,0,0,0,0,0,0,0,0,0,0,0,0],"id":43,"left_children":[1,3,5,7,9,11,13,15,17,19,21,23,25,27,29,-1,-1,-1,-1,-1,-1,-1,-1,-1,-1,-1,-1,-1,-1,-1,-1],"loss_changes":[6.320455E6,1.1403268E6,9.2992425E5,5.39368E5,4.0490375E5,5.614554E5,8.944475E4,7.7096E4,1.0646964E5,1.4798281E5,1.5007688E5,1.6754702E5,1.0963756E5,1.1937875E4,7.21825E4,0E0,0E0,0E0,0E0,0E0,0E0,0E0,0E0,0E0,0E0,0E0,0E0,0E0,0E0,0E0,0E0],"parents":[2147483647,0,0,1,1,2,2,3,3,4,4,5,5,6,6,7,7,8,8,9,9,10,10,11,11,12,12,13,13,14,14],"right_children":[2,4,6,8,10,12,14,16,18,20,22,24,26,28,30,-1,-1,-1,-1,-1,-1,-1,-1,-1,-1,-1,-1,-1,-1,-1,-1],"split_conditions":[9.7473E2,4.0774E2,1E1,9E0,1.3E1,5.17E2,4.81E2,2E0,8.69E2,8.35E2,5.17E2,7.5E1,4E0,1.2E1,2.42347E3,-1.0911285E1,-6.004866E0,-3.2744002E0,5.313974E-1,-3.2177777E0,-7.3029983E-1,-1.3191216E0,3.7354846E0,-3.2107606E0,7.866308E-2,9.5807654E-1,3.1527903E0,1.2805254E0,3.2453701E0,5.550976E0,1.209732E0],"split_indices":[2,2,0,0,0,1,1,0,1,1,1,1,0,0,2,0,0,0,0,0,0,0,0,0,0,0,0,0,0,0,0],"split_type":[0,0,0,0,0,0,0,0,0,0,0,0,0,0,0,0,0,0,0,0,0,0,0,0,0,0,0,0,0,0,0],"sum_hessian":[5.52E2,2.29E2,3.23E2,9.6E1,1.33E2,2.07E2,1.16E2,6.6E1,3E1,1.18E2,1.5E1,8.8E1,1.19E2,3.4E1,8.2E1,1.5E1,5.1E1,2.3E1,7E0,8.5E1,3.3E1,5E0,1E1,1.2E1,7.6E1,3.4E1,8.5E1,1.5E1,1.9E1,7.5E1,7E0],"tree_param":{"num_deleted":"0","num_feature":"3","num_nodes":"31","size_leaf_vector":"1"}},{"base_weights":[-9.811729E0,-1.7536263E2,5.2182186E1,-2.426047E2,-5.955796E1,-1.9178167E1,9.847989E1,-9.375309E0,-1.7224947E2,-9.6116684E1,3.2915005E1,-1.0483492E2,2.1078842E1,3.262272E1,1.333116E2,-7.0005035E0,-3.4232054E0,-3.4821825E0,-3.1206796E-1,-3.8180318E-1,1.6644192E0,-4.601504E0,-1.6964083E0,-4.1440167E0,1.1435422E0,-4.5542482E-1,2.1721091E0,2.7195828E0,5.3031297E0],"categories":[],"categories_nodes":[],"categories_segments":[],"categories_sizes":[],"default_left":[0,0,0,0,0,0,0,0,0,0,0,0,0,0,0,0,0,0,0,0,0,0,0,0,0,0,0,0,0],"id":44,"left_children":[1,3,5,7,9,11,13,-1,15,17,19,21,23,25,27,-1,-1,-1,-1,-1,-1,-1,-1,-1,-1,-1,-1,-1,-1],"loss_changes":[5.5777145E6,1.0799205E6,1.3178354E6,1.82843E5,2.2210389E5,5.628583E5,5.3092325E5,0E0,6.9013875E4,7.081E4,2.5201852E4,7.8327375E4,3.3278047E5,1.7670319E5,2.0882125E5,0E0,0E0,0E0,0E0,0E0,0E0,0E0,0E0,0E0,0E0,0E0,0E0,0E0,0E0],"parents":[2147483647,0,0,1,1,2,2,3,3,4,4,5,5,6,6,8,8,9,9,10,10,11,11,12,12,13,13,14,14],"right_children":[2,4,6,8,10,12,14,-1,16,18,20,22,24,26,28,-1,-1,-1,-1,-1,-1,-1,-1,-1,-1,-1,-1,-1,-1],"split_conditions":[5.736E2,8E0,6E0,2.65E2,8.69E2,1.07244E3,4.87E2,-9.375309E0,3E0,1.3E1,1.092E3,3.96E2,7E1,1.42094E3,1.1E1,-7.0005035E0,-3.4232054E0,-3.4821825E0,-3.1206796E-1,-3.8180318E-1,1.6644192E0,-4.601504E0,-1.6964083E0,-4.1440167E0,1.1435422E0,-4.5542482E-1,2.1721091E0,2.7195828E0,5.3031297E0],"split_indices":[2,0,0,1,1,2,1,0,0,0,1,1,1,2,0,0,0,0,0,0,0,0,0,0,0,0,0,0,0],"split_type":[0,0,0,0,0,0,0,0,0,0,0,0,0,0,0,0,0,0,0,0,0,0,0,0,0,0,0,0,0],"sum_hessian":[5.34E2,1.43E2,3.91E2,8.7E1,5.6E1,1.55E2,2.36E2,3.5E1,5.2E1,4E1,1.6E1,4.7E1,1.08E2,8.5E1,1.51E2,1.8E1,3.4E1,3.1E1,9E0,6E0,1E1,1.8E1,2.9E1,7E0,1.01E2,4E1,4.5E1,8.4E1,6.7E1],"tree_param":{"num_deleted":"0","num_feature":"3","num_nodes":"29","size_leaf_vector":"1"}},{"base_weights":[-4.522142E0,-1.5250835E2,6.477117E1,-9.054731E0,-1.0930331E2,-1.5062207E1,1.033085E2,-1.777792E2,-5.588026E1,-7.040345E1,3.6648945E1,6.491598E1,1.5797934E2,-5.702158E0,-2.2505546E0,-2.584668E0,1.5694635E0,-4.942751E0,-1.4638202E0,-2.046514E-1,2.4709415E0,-1.2325171E0,3.138583E0,5.636313E0,2.7900455E0],"categories":[],"categories_nodes":[],"categories_segments":[],"categories_sizes":[],"default_left":[0,0,0,0,0,0,0,0,0,0,0,0,0,0,0,0,0,0,0,0,0,0,0,0,0],"id":45,"left_children":[1,3,5,-1,7,9,11,13,15,17,19,21,23,-1,-1,-1,-1,-1,-1,-1,-1,-1,-1,-1,-1],"loss_changes":[5.8534995E6,1.0087565E6,1.2046524E6,0E0,4.9516512E5,3.878253E5,5.0052425E5,8.022625E3,3.2065544E5,9.212253E4,1.4398281E5,7.0755E5,1.163375E5,0E0,0E0,0E0,0E0,0E0,0E0,0E0,0E0,0E0,0E0,0E0,0E0],"parents":[2147483647,0,0,1,1,2,2,4,4,5,5,6,6,7,7,8,8,9,9,10,10,11,11,12,12],"right_children":[2,4,6,-1,8,10,12,14,16,18,20,22,24,-1,-1,-1,-1,-1,-1,-1,-1,-1,-1,-1,-1],"split_conditions":[7.4714E2,3E0,6E0,-9.054731E0,4.29E2,6.21E2,7.53E2,1.1E1,1.1E1,7E1,1.81719E3,1.1914E3,1.79328E3,-5.702158E0,-2.2505546E0,-2.584668E0,1.5694635E0,-4.942751E0,-1.4638202E0,-2.046514E-1,2.4709415E0,-1.2325171E0,3.138583E0,5.636313E0,2.7900455E0],"split_indices":[2,0,0,0,1,1,1,0,0,1,2,2,2,0,0,0,0,0,0,0,0,0,0,0,0],"split_type":[0,0,0,0,0,0,0,0,0,0,0,0,0,0,0,0,0,0,0,0,0,0,0,0,0],"sum_hessian":[5.61E2,1.77E2,3.84E2,3.3E1,1.44E2,1.26E2,2.58E2,5.8E1,8.6E1,6E1,6.6E1,1.58E2,1E2,4.8E1,1E1,6.8E1,1.8E1,5E0,5.5E1,3.6E1,3E1,4.3E1,1.15E2,6.2E1,3.8E1],"tree_param":{"num_deleted":"0","num_feature":"3","num_nodes":"25","size_leaf_vector":"1"}},{"base_weights":[-9.192785E0,-1.5985635E2,5.212238E1,-2.6569244E2,-1.00039345E2,-1.7296267E1,9.541049E1,-8.599181E0,-6.5879425E1,-1.2335954E2,2.102918E1,-7.824909E1,3.3433804E1,7.031232E1,2.088957E2,3.0120665E-1,-2.3230758E0,-6.1208305E0,-2.854995E0,-1.7310347E-1,1.9810112E0,-4.1140466E0,-1.1359727E0,-1.0863129E0,1.7273345E0,1.2596625E0,3.89066E0,7.3653784E0,2.3541307E0],"categories":[],"categories_nodes":[],"categories_segments":[],"categories_sizes":[],"default_left":[0,0,0,0,0,0,0,0,0,0,0,0,0,0,0,0,0,0,0,0,0,0,0,0,0,0,0,0,0],"id":46,"left_children":[1,3,5,7,9,11,13,-1,15,17,19,21,23,25,27,-1,-1,-1,-1,-1,-1,-1,-1,-1,-1,-1,-1,-1,-1],"loss_changes":[5.399786E6,9.366405E5,1.2584102E6,1.479865E5,3.4058075E5,5.202368E5,6.5828675E5,0E0,1.4483082E4,1.2549725E5,2.9705434E4,1.5458988E5,1.6682469E5,3.392225E5,1.13480875E5,0E0,0E0,0E0,0E0,0E0,0E0,0E0,0E0,0E0,0E0,0E0,0E0,0E0,0E0],"parents":[2147483647,0,0,1,1,2,2,3,3,4,4,5,5,6,6,8,8,9,9,10,10,11,11,12,12,13,13,14,14],"right_children":[2,4,6,8,10,12,14,-1,16,18,20,22,24,26,28,-1,-1,-1,-1,-1,-1,-1,-1,-1,-1,-1,-1,-1,-1],"split_conditions":[6.5524E2,2.65E2,6E0,1.2E1,1.1E1,6.21E2,9.92E2,-8.599181E0,1.2465E2,3E0,1.024E3,1.07487E3,2E0,1.2E1,1.80949E3,3.0120665E-1,-2.3230758E0,-6.1208305E0,-2.854995E0,-1.7310347E-1,1.9810112E0,-4.1140466E0,-1.1359727E0,-1.0863129E0,1.7273345E0,1.2596625E0,3.89066E0,7.3653784E0,2.3541307E0],"split_indices":[2,1,0,0,0,1,1,0,2,0,1,2,0,0,2,0,0,0,0,0,0,0,0,0,0,0,0,0,0],"split_type":[0,0,0,0,0,0,0,0,0,0,0,0,0,0,0,0,0,0,0,0,0,0,0,0,0,0,0,0,0],"sum_hessian":[5.75E2,1.64E2,4.11E2,5.3E1,1.11E2,1.59E2,2.52E2,4.6E1,7E0,9.3E1,1.8E1,7.1E1,8.8E1,2.13E2,3.9E1,1E0,6E0,1.6E1,7.7E1,1.4E1,4E0,2.4E1,4.7E1,2.2E1,6.6E1,1.5E2,6.3E1,2.7E1,1.2E1],"tree_param":{"num_deleted":"0","num_feature":"3","num_nodes":"29","size_leaf_vector":"1"}},{"base_weights":[-9.9623924E-1,-1.2398577E2,7.122544E1,-2.5505856E2,-7.553021E1,-1.6840689E1,1.06970856E2,-2.7912524E2,-2.7449968E1,-4.721967E0,-3.274316E1,-8.243278E1,1.8313688E1,8.5060524E1,1.999934E2,-9.28033E0,-3.8293407E0,-1.2961E0,3.680587E-1,-2.235094E0,6.625019E-1,-4.6384187E0,-1.4078448E0,-1.4417864E0,1.7694356E0,3.0933104E-3,3.192302E0,9.470886E-1,6.3589973E0],"categories":[],"categories_nodes":[],"categories_segments":[],"categories_sizes":[],"default_left":[0,0,0,0,0,0,0,0,0,0,0,0,0,0,0,0,0,0,0,0,0,0,0,0,0,0,0,0,0],"id":47,"left_children":[1,3,5,7,9,11,13,15,17,-1,19,21,23,25,27,-1,-1,-1,-1,-1,-1,-1,-1,-1,-1,-1,-1,-1,-1],"loss_changes":[5.2582415E6,1.2942605E6,1.1832866E6,2.7361725E5,5.590287E5,2.6586744E5,4.5680625E5,3.558975E4,9.563881E3,0E0,2.738673E5,6.603031E4,2.2202497E5,4.0613025E5,6.107675E4,0E0,0E0,0E0,0E0,0E0,0E0,0E0,0E0,0E0,0E0,0E0,0E0,0E0,0E0],"parents":[2147483647,0,0,1,1,2,2,3,3,4,4,5,5,6,6,7,7,8,8,10,10,11,11,12,12,13,13,14,14],"right_children":[2,4,6,8,10,12,14,16,18,-1,20,22,24,26,28,-1,-1,-1,-1,-1,-1,-1,-1,-1,-1,-1,-1,-1,-1],"split_conditions":[8.8884E2,2.15E2,5E0,1.2E1,5E0,3.1069E2,1.3E1,5.4499E2,1.4E1,-4.721967E0,4.9045E2,7E1,2E0,3.14E2,7.2E1,-9.28033E0,-3.8293407E0,-1.2961E0,3.680587E-1,-2.235094E0,6.625019E-1,-4.6384187E0,-1.4078448E0,-1.4417864E0,1.7694356E0,3.0933104E-3,3.192302E0,9.470886E-1,6.3589973E0],"split_indices":[2,1,0,0,0,1,0,2,0,0,2,1,0,1,1,0,0,0,0,0,0,0,0,0,0,0,0,0,0],"split_type":[0,0,0,0,0,0,0,0,0,0,0,0,0,0,0,0,0,0,0,0,0,0,0,0,0,0,0,0,0],"sum_hessian":[5.82E2,2.14E2,3.68E2,5.2E1,1.62E2,1.07E2,2.61E2,4.6E1,6E0,5.1E1,1.11E2,3.5E1,7.2E1,2.19E2,4.2E1,3.4E1,1.2E1,4E0,2E0,6.2E1,4.9E1,6E0,2.9E1,2.7E1,4.5E1,4.5E1,1.74E2,4E0,3.8E1],"tree_param":{"num_deleted":"0","num_feature":"3","num_nodes":"29","size_leaf_vector":"1"}},{"base_weights":[-6.966763E0,-1.23783066E2,7.384521E1,-2.3817918E2,-6.2216534E1,5.2871967E1,1.9756349E2,-9.065165E0,-1.435548E2,-9.148393E1,3.3337738E1,-2.3825468E1,7.391877E1,8.7037927E-1,6.0571585E0,-4.4879446E0,-7.500618E-1,-3.5907054E0,-9.923136E-1,-1.799829E-1,1.602777E0,-1.9429294E0,3.2565966E-1,-1.2782036E0,2.6993003E0],"categories":[],"categories_nodes":[],"categories_segments":[],"categories_sizes":[],"default_left":[0,0,0,0,0,0,0,0,0,0,0,0,0,0,0,0,0,0,0,0,0,0,0,0,0],"id":48,"left_children":[1,3,5,7,9,11,13,-1,15,17,19,21,23,-1,-1,-1,-1,-1,-1,-1,-1,-1,-1,-1,-1],"loss_changes":[5.2661595E6,1.5314042E6,8.03797E5,2.549755E5,4.487843E5,4.7537E5,4.1435E3,0E0,1.0498875E4,1.7774469E5,3.3258504E4,9.727534E4,4.4583938E5,0E0,0E0,0E0,0E0,0E0,0E0,0E0,0E0,0E0,0E0,0E0,0E0],"parents":[2147483647,0,0,1,1,2,2,3,3,4,4,5,5,6,6,8,8,9,9,10,10,11,11,12,12],"right_children":[2,4,6,8,10,12,14,-1,16,18,20,22,24,-1,-1,-1,-1,-1,-1,-1,-1,-1,-1,-1,-1],"split_conditions":[9.5192E2,5E0,1.3E1,5.67E2,8.35E2,4E0,9.544E2,-9.065165E0,8.8632E2,5.5498E2,4.7475E2,2E0,1.52E2,8.7037927E-1,6.0571585E0,-4.4879446E0,-7.500618E-1,-3.5907054E0,-9.923136E-1,-1.799829E-1,1.602777E0,-1.9429294E0,3.2565966E-1,-1.2782036E0,2.6993003E0],"split_indices":[2,0,0,1,1,0,2,0,2,2,2,0,1,0,0,0,0,0,0,0,0,0,0,0,0],"split_type":[0,0,0,0,0,0,0,0,0,0,0,0,0,0,0,0,0,0,0,0,0,0,0,0,0],"sum_hessian":[5.48E2,2.23E2,3.25E2,7.3E1,1.5E2,2.84E2,4.1E1,3.7E1,3.6E1,1.15E2,3.5E1,6.1E1,2.23E2,2E0,3.9E1,3.3E1,3E0,7.4E1,4.1E1,1.3E1,2.2E1,2.6E1,3.5E1,2.6E1,1.97E2],"tree_param":{"num_deleted":"0","num_feature":"3","num_nodes":"25","size_leaf_vector":"1"}},{"base_weights":[5.881516E-1,-1.10449684E2,7.295838E1,-1.9580603E2,-6.484718E1,-4.6867375E0,1.0019684E2,-2.2214264E2,-1.1206317E2,-1.0612588E2,1.0828559E1,-1.453553E2,1.2376175E1,7.369452E1,1.9740091E2,-6.844421E0,-1.3244318E0,-3.5183358E0,-3.5284162E-1,-3.7735949E0,-1.006729E0,-8.8536805E-1,1.4170011E0,-9.6643156E-1,-5.025725E0,-1.5146295E0,1.1884645E0,1.5727807E0,3.9042804E0,7.341771E0,2.9800394E0],"categories":[],"categories_nodes":[],"categories_segments":[],"categories_sizes":[],"default_left":[0,0,0,0,0,0,0,0,0,0,0,0,0,0,0,0,0,0,0,0,0,0,0,0,0,0,0,0,0,0,0],"id":49,"left_children":[1,3,5,7,9,11,13,15,17,19,21,23,25,27,29,-1,-1,-1,-1,-1,-1,-1,-1,-1,-1,-1,-1,-1,-1,-1,-1],"loss_changes":[4.765324E6,8.4708825E5,7.617044E5,4.94305E4,5.0564875E5,2.443488E5,6.1224375E5,8.1515E3,8.1424688E3,1.2711575E5,9.657216E4,4.0709375E2,1.6752739E5,2.2622625E5,1.2871925E5,0E0,0E0,0E0,0E0,0E0,0E0,0E0,0E0,0E0,0E0,0E0,0E0,0E0,0E0,0E0,0E0],"parents":[2147483647,0,0,1,1,2,2,3,3,4,4,5,5,6,6,7,7,8,8,9,9,10,10,11,11,12,12,13,13,14,14],"right_children":[2,4,6,8,10,12,14,16,18,20,22,24,26,28,30,-1,-1,-1,-1,-1,-1,-1,-1,-1,-1,-1,-1,-1,-1,-1,-1],"split_conditions":[9.5192E2,5E0,5E0,8.26E2,7.51E2,7E1,9.92E2,8.8884E2,8.6393E2,1.1E1,5.5498E2,2.1E1,2E0,1.2E1,1.76853E3,-6.844421E0,-1.3244318E0,-3.5183358E0,-3.5284162E-1,-3.7735949E0,-1.006729E0,-8.8536805E-1,1.4170011E0,-9.6643156E-1,-5.025725E0,-1.5146295E0,1.1884645E0,1.5727807E0,3.9042804E0,7.341771E0,2.9800394E0],"split_indices":[2,0,0,1,1,1,1,2,2,0,2,1,0,0,2,0,0,0,0,0,0,0,0,0,0,0,0,0,0,0,0],"split_type":[0,0,0,0,0,0,0,0,0,0,0,0,0,0,0,0,0,0,0,0,0,0,0,0,0,0,0,0,0,0,0],"sum_hessian":[5.83E2,2.29E2,3.54E2,7.4E1,1.55E2,9.3E1,2.61E2,5E1,2.4E1,9.9E1,5.6E1,6E0,8.7E1,2.12E2,4.9E1,4.7E1,3E0,2.2E1,2E0,7.5E1,2.4E1,2.7E1,2.9E1,3E0,3E0,2.5E1,6.2E1,1.61E2,5.1E1,2.8E1,2.1E1],"tree_param":{"num_deleted":"0","num_feature":"3","num_nodes":"31","size_leaf_vector":"1"}},{"base_weights":[-1.8891397E0,-1.416791E2,5.784446E1,-8.166054E0,-1.0359309E2,-3.2493263E1,9.000755E1,-1.7485498E2,-5.6634933E1,-1.2671574E2,-2.898658E-1,2.8078835E1,1.22628685E2,-5.817421E0,-1.817904E0,-2.3195634E0,1.7554808E0,5.116333E-2,-4.275221E0,-3.8071058E0,5.61234E-1,1.2481997E0,-6.016489E0,2.7219017E0,4.997789E0],"categories":[],"categories_nodes":[],"categories_segments":[],"categories_sizes":[],"default_left":[0,0,0,0,0,0,0,0,0,0,0,0,0,0,0,0,0,0,0,0,0,0,0,0,0],"id":50,"left_children":[1,3,5,-1,7,9,11,13,15,17,19,21,23,-1,-1,-1,-1,-1,-1,-1,-1,-1,-1,-1,-1],"loss_changes":[4.8257005E6,7.186315E5,1.1914246E6,0E0,4.2543238E5,3.3346056E5,5.8868825E5,5.858575E4,2.4414488E5,5.8139438E4,2.212453E5,3.8177506E5,1.97636E5,0E0,0E0,0E0,0E0,0E0,0E0,0E0,0E0,0E0,0E0,0E0,0E0],"parents":[2147483647,0,0,1,1,2,2,4,4,5,5,6,6,7,7,8,8,9,9,10,10,11,11,12,12],"right_children":[2,4,6,-1,8,10,12,14,16,18,20,22,24,-1,-1,-1,-1,-1,-1,-1,-1,-1,-1,-1,-1],"split_conditions":[6.5524E2,3E0,5E0,-8.166054E0,3.4446E2,1.07487E3,4.87E2,1.1E1,1.2E1,8.153E2,7E1,4.81E2,1.1E1,-5.817421E0,-1.817904E0,-2.3195634E0,1.7554808E0,5.116333E-2,-4.275221E0,-3.8071058E0,5.61234E-1,1.2481997E0,-6.016489E0,2.7219017E0,4.997789E0],"split_indices":[2,0,0,0,1,2,1,0,0,2,1,1,0,0,0,0,0,0,0,0,0,0,0,0,0],"split_type":[0,0,0,0,0,0,0,0,0,0,0,0,0,0,0,0,0,0,0,0,0,0,0,0,0],"sum_hessian":[5.68E2,1.68E2,4E2,3.1E1,1.37E2,1.05E2,2.95E2,4.9E1,8.8E1,2.3E1,8.2E1,1.05E2,1.9E2,3.9E1,1E1,7.6E1,1.2E1,3E0,2E1,7E0,7.5E1,1.03E2,2E0,1.19E2,7.1E1],"tree_param":{"num_deleted":"0","num_feature":"3","num_nodes":"25","size_leaf_vector":"1"}},{"base_weights":[-2.0410876E0,-1.0501581E2,6.2344265E1,-1.7426285E2,-3.6599064E1,1.5014552E1,1.2411973E2,-7.2410436E0,-1.0499377E2,-1.1574468E2,1.719803E1,-3.943918E1,5.8502293E1,9.638754E1,2.0006404E2,-3.7768822E0,-1.4651747E0,-4.0064607E0,-9.5978916E-1,-7.854859E-1,1.7853606E0,-5.3851855E-1,-4.396861E0,-4.3292773E-1,2.2618325E0,4.1967455E-1,3.5131934E0,7.3096476E0,2.6620703E0],"categories":[],"categories_nodes":[],"categories_segments":[],"categories_sizes":[],"default_left":[0,0,0,0,0,0,0,0,0,0,0,0,0,0,0,0,0,0,0,0,0,0,0,0,0,0,0,0,0],"id":51,"left_children":[1,3,5,7,9,11,13,-1,15,17,19,21,23,25,27,-1,-1,-1,-1,-1,-1,-1,-1,-1,-1,-1,-1,-1,-1],"loss_changes":[3.7920245E6,1.0101845E6,1.0197255E6,3.749615E5,5.0821456E5,4.9700972E5,2.2341275E5,0E0,4.1855125E4,5.0044875E4,1.436601E5,2.0306119E5,1.4841272E5,1.9824938E5,6.6267625E4,0E0,0E0,0E0,0E0,0E0,0E0,0E0,0E0,0E0,0E0,0E0,